word,embedding_0,embedding_1,embedding_2,embedding_3,embedding_4,embedding_5,embedding_6,embedding_7,embedding_8,embedding_9,embedding_10,embedding_11,embedding_12,embedding_13,embedding_14,embedding_15,embedding_16,embedding_17,embedding_18,embedding_19,embedding_20,embedding_21,embedding_22,embedding_23,embedding_24,embedding_25,embedding_26,embedding_27,embedding_28,embedding_29,embedding_30,embedding_31,embedding_32,embedding_33,embedding_34,embedding_35,embedding_36,embedding_37,embedding_38,embedding_39,embedding_40,embedding_41,embedding_42,embedding_43,embedding_44,embedding_45,embedding_46,embedding_47,embedding_48,embedding_49,embedding_50,embedding_51,embedding_52,embedding_53,embedding_54,embedding_55,embedding_56,embedding_57,embedding_58,embedding_59,embedding_60,embedding_61,embedding_62,embedding_63,embedding_64,embedding_65,embedding_66,embedding_67,embedding_68,embedding_69,embedding_70,embedding_71,embedding_72,embedding_73,embedding_74,embedding_75,embedding_76,embedding_77,embedding_78,embedding_79,embedding_80,embedding_81,embedding_82,embedding_83,embedding_84,embedding_85,embedding_86,embedding_87,embedding_88,embedding_89,embedding_90,embedding_91,embedding_92,embedding_93,embedding_94,embedding_95,embedding_96,embedding_97,embedding_98,embedding_99
the,-0.16457707,0.022871023,-0.05521968,-0.0040444247,-0.050596714,-0.29877856,0.25024968,0.42022514,-0.33858728,-0.112088345,-0.035347894,-0.43981016,-0.021861568,-0.0208815,0.0343459,-0.18107115,0.25277922,-0.15487142,-0.05709589,-0.448271,0.21672831,0.13335408,0.39286533,-0.10326907,-0.12312588,-0.021302624,-0.21240443,0.1013321,-0.13647252,-0.12587261,0.3479894,-0.032948177,0.22524007,-0.1599304,-0.018707208,0.3137158,0.20569338,-0.29734626,-0.34417614,-0.32012358,-0.030909948,-0.32538146,-0.010659585,0.09206654,0.24369788,-0.07004814,-0.04734383,-0.105849266,0.010253739,0.11933481,0.012172865,-0.14602247,0.067896,0.080307454,-0.356029,0.0859951,0.053589948,0.1337538,-0.26282245,0.121191174,-0.05219489,0.06004603,0.07899262,0.11150525,-0.15537256,0.263763,0.012269729,0.12270882,-0.27657667,0.23491564,0.10794745,0.1424982,0.15753293,0.1396881,0.31215158,0.10880338,0.120165594,-0.008617766,-0.32731926,0.098566115,-0.03412213,-0.025629846,-0.18451162,0.076636665,-0.20577954,-0.037873708,0.08779368,0.16433908,0.1150151,0.056345277,0.32785183,0.008536673,0.0062064123,0.039660525,0.4799708,0.17509244,0.20838211,-0.39539286,0.1298845,0.110427454
and,-0.17244121,0.018944329,-0.05520128,-0.0051298514,-0.032292746,-0.29085925,0.24430999,0.4173334,-0.33940443,-0.115164496,-0.043546226,-0.44870183,-0.022337494,-0.025295634,0.045486107,-0.16908771,0.2622105,-0.15026376,-0.049550425,-0.44622618,0.20520505,0.12297839,0.39780745,-0.11657373,-0.13036136,-0.016103083,-0.22751357,0.10472009,-0.12294154,-0.112896726,0.3634112,-0.037377942,0.21967493,-0.16400872,-0.0070398534,0.32645616,0.20318897,-0.28838804,-0.34109855,-0.30274737,0.0016011697,-0.34406057,-0.005360883,0.102344565,0.23839512,-0.059171718,-0.03585766,-0.11716076,0.009378007,0.111335345,0.029530078,-0.15704322,0.07360003,0.087338604,-0.3685591,0.09275698,0.063054316,0.14846626,-0.26024228,0.13036928,-0.06489008,0.056215163,0.07965874,0.1201313,-0.15775497,0.26531765,0.028253494,0.11622625,-0.266435,0.24104159,0.09652675,0.12000453,0.17374766,0.16600965,0.31100905,0.10153394,0.11215565,-0.013024779,-0.32477233,0.10419881,-0.04932307,-0.025648277,-0.18304956,0.05475526,-0.19896142,-0.051410336,0.08207529,0.16279414,0.12518485,0.040989127,0.33296263,0.0086963475,-0.0042476812,0.028962329,0.46388236,0.17150383,0.2268462,-0.39653027,0.12524368,0.10649781
to,-0.13827674,0.014829958,-0.070614375,-0.011573535,-0.015576707,-0.28301522,0.24070854,0.41387412,-0.34439895,-0.095383815,-0.04094381,-0.44236398,0.0121617615,-0.039070763,0.06779598,-0.17703126,0.25450215,-0.15039468,-0.057439923,-0.45997903,0.18652381,0.13371643,0.38344052,-0.13333084,-0.13478851,-0.030721588,-0.209789,0.105831444,-0.12851582,-0.10687284,0.3565719,-0.0372765,0.22229406,-0.15252103,-0.01447934,0.3342641,0.18451415,-0.28744957,-0.3482026,-0.31865102,-0.0143746035,-0.3413355,0.001724013,0.1292668,0.26375255,-0.060569737,-0.04957391,-0.11537672,-0.007336964,0.11448068,0.02332532,-0.15356,0.045902546,0.06378344,-0.38776764,0.074679375,0.049181025,0.13893913,-0.27881584,0.12373999,-0.049443383,0.036760606,0.09786409,0.1273357,-0.16809943,0.274015,0.03368411,0.13069548,-0.28263146,0.2427073,0.10010688,0.13264546,0.17684536,0.17749558,0.32154197,0.11224213,0.12952326,-0.0140070105,-0.32599932,0.10060691,-0.030849716,-0.040875126,-0.20332861,0.052465744,-0.18066908,-0.0657737,0.09378836,0.17246109,0.14846243,0.050187744,0.33263245,0.018156243,0.0006096531,0.03959211,0.469522,0.17553686,0.22920112,-0.39472753,0.14435811,0.079298176
a,-0.1700036,0.028323136,-0.060467355,-0.013045751,-0.04078278,-0.3006045,0.24491377,0.42733863,-0.3253035,-0.11520822,-0.03325978,-0.43213528,-0.009918187,-0.03859923,0.055414863,-0.16789794,0.2628969,-0.18415977,-0.053466003,-0.43773457,0.21660659,0.12940298,0.40849593,-0.1106338,-0.15126632,-0.009702078,-0.21030137,0.09660435,-0.11314253,-0.11754476,0.3515236,-0.029603444,0.20185053,-0.15179276,-0.0020379971,0.3478736,0.1904386,-0.30050224,-0.366515,-0.3046416,-0.007722957,-0.3268578,0.012642466,0.10693211,0.25306624,-0.06323169,-0.03734664,-0.11727336,-0.0004363312,0.11510995,0.023718903,-0.14297853,0.056574218,0.06823022,-0.38260227,0.09715677,0.056677375,0.16029912,-0.25527802,0.11552956,-0.057080515,0.0683041,0.087122075,0.12479313,-0.14716108,0.25387672,0.012467637,0.14518975,-0.27241746,0.22887377,0.10500864,0.118710525,0.15844429,0.17427023,0.30926338,0.09977063,0.10369095,-0.0062235133,-0.34168595,0.11146102,-0.039518543,-0.02729455,-0.18976602,0.0726902,-0.19827393,-0.053755943,0.09665646,0.19876716,0.121865705,0.031181347,0.32649803,-0.00020796541,-0.01660312,0.04371708,0.48101136,0.1654215,0.23738593,-0.40965235,0.124934494,0.09551905
of,-0.17238921,0.016454719,-0.07138984,-0.011810866,-0.025584033,-0.28546607,0.24079137,0.4173866,-0.3399692,-0.094647296,-0.0539705,-0.43444428,-0.021328853,-0.028896544,0.04037914,-0.17754872,0.2542809,-0.1449661,-0.036099017,-0.45655617,0.20827664,0.12638417,0.40872437,-0.103639595,-0.13534807,-0.014202575,-0.22032301,0.108219005,-0.13418628,-0.124029376,0.36903992,-0.026082532,0.21896602,-0.161441,-0.0014845135,0.3196369,0.18781736,-0.29557624,-0.3520198,-0.3178801,-0.0092607,-0.34744048,-0.018641481,0.11319559,0.25328416,-0.081877664,-0.033592727,-0.120073296,0.012894355,0.10007347,0.023873596,-0.1459135,0.09002346,0.08509401,-0.37401223,0.080013014,0.041762073,0.13402072,-0.26151493,0.110372834,-0.04419556,0.045948938,0.08463107,0.12655607,-0.16344452,0.2676098,0.02849276,0.13353589,-0.2835888,0.2465722,0.08383339,0.14198364,0.16278173,0.15923421,0.31143585,0.110190034,0.10281851,-0.0015451033,-0.3296131,0.096699275,-0.04268426,-0.042885005,-0.18810675,0.065538615,-0.20103459,-0.046915423,0.08708948,0.17805974,0.10983783,0.04216033,0.33864614,0.0051858523,-0.0051443116,0.03741814,0.47467294,0.16263907,0.2263826,-0.39369065,0.14023994,0.09923598
it,-0.15189567,0.020535385,-0.0677108,-0.022119364,-0.05308128,-0.28774682,0.25352117,0.40729356,-0.3395192,-0.114546075,-0.049470793,-0.4324262,-0.025525803,-0.046678476,0.0490107,-0.1785867,0.24719426,-0.17340402,-0.048362367,-0.44624138,0.18806055,0.12953515,0.40619382,-0.11047003,-0.15000568,-0.027544834,-0.22082783,0.08690576,-0.10476668,-0.102458976,0.36002484,-0.044468008,0.21806759,-0.16348307,-0.014802536,0.34237343,0.20106508,-0.28102818,-0.34655088,-0.31862488,0.0070108213,-0.3382868,0.005915212,0.10743569,0.24520211,-0.06565428,-0.04755865,-0.097916536,0.004516229,0.10650991,0.027302945,-0.1545848,0.07904149,0.090469636,-0.3906663,0.08461062,0.07575457,0.1362382,-0.27412936,0.11437339,-0.048707757,0.048104703,0.09899214,0.12282544,-0.13903607,0.2585843,0.020451773,0.13318522,-0.28681368,0.21433912,0.09400227,0.13374986,0.17456864,0.17822136,0.31195405,0.10554092,0.10234336,-0.0027565355,-0.3236073,0.114059426,-0.030322757,-0.043034486,-0.17649432,0.050226457,-0.19666615,-0.062733926,0.07931984,0.19007373,0.1229475,0.054491397,0.35505757,0.0236996,-0.030242149,0.038353816,0.47290662,0.17246425,0.21710126,-0.39957675,0.13700359,0.09647612
she,-0.13506518,0.01909538,-0.06902027,-0.011978001,-0.045818288,-0.2962425,0.2609851,0.41057882,-0.33239868,-0.123048596,-0.032610875,-0.437615,-0.019378545,-0.030637857,0.033940546,-0.1933515,0.27876243,-0.13804655,-0.050630774,-0.4706278,0.20808053,0.12597165,0.39434776,-0.110415205,-0.1429293,-0.010792216,-0.23488046,0.10245802,-0.112276286,-0.11442086,0.35882288,-0.018066138,0.22501488,-0.16186601,-0.035821017,0.32542896,0.20805739,-0.2973436,-0.36783874,-0.3285242,0.0052555166,-0.34791738,0.026474213,0.0933053,0.24466062,-0.04980604,-0.059694376,-0.13195811,0.004999952,0.109147854,0.022703378,-0.16619472,0.07016069,0.08552638,-0.38971922,0.063803226,0.051997118,0.1381841,-0.28936288,0.111560956,-0.055351123,0.037195634,0.106276214,0.1395686,-0.15318674,0.27176777,0.009999091,0.121585794,-0.29302603,0.22663529,0.106086425,0.14231616,0.1717112,0.1721522,0.32533428,0.0989495,0.12608461,0.013669778,-0.33636042,0.11697964,-0.028981702,-0.03180255,-0.20588326,0.05800176,-0.21158935,-0.054120623,0.09843737,0.16603516,0.11389409,0.054184016,0.34348115,0.021732574,-0.010432232,0.036886096,0.47063532,0.16731118,0.23913452,-0.39884576,0.12550554,0.11787307
i,-0.111041315,-0.00213786,-0.043809496,0.016448189,-0.035496026,-0.2836001,0.24896835,0.41441765,-0.35235882,-0.07189685,-0.055328824,-0.4252008,0.006984926,-0.049292862,0.0799036,-0.1312872,0.26095846,-0.21900858,-0.058029756,-0.49451202,0.20450278,0.19130525,0.4265622,-0.16969846,-0.18094449,-0.029534888,-0.2282733,0.10894415,-0.11838364,-0.091575086,0.3589066,-0.023697937,0.24777226,-0.15287809,-0.0013437904,0.39727902,0.14287414,-0.3166227,-0.4020511,-0.33543178,0.014978625,-0.35248876,0.0141575495,0.13838546,0.29259294,-0.07508615,-0.064044654,-0.11477366,0.010492772,0.11945446,-0.006783847,-0.15056029,0.040277846,0.0648992,-0.4169,0.1079471,0.046331782,0.18189499,-0.27875602,0.15296315,-0.04066854,0.04422092,0.053605296,0.14365605,-0.15204744,0.27401662,0.013205688,0.15649186,-0.28357178,0.24598746,0.070628695,0.11974709,0.16071625,0.19806539,0.33701068,0.08226623,0.12287085,-0.046448324,-0.34221697,0.086641386,-0.039513376,-0.050320093,-0.2284694,0.07188297,-0.16754727,-0.088780195,0.11032824,0.2379676,0.15779804,0.043343984,0.36425686,-0.022298524,-0.06298031,0.06363404,0.4641763,0.18595888,0.22050276,-0.42706507,0.15147102,0.071744464
you,-0.1463732,0.01587602,-0.05293585,0.007057197,-0.020883305,-0.28871286,0.25433558,0.40847284,-0.34394252,-0.0706918,-0.045538563,-0.432084,0.0061172103,-0.04401617,0.07505589,-0.1492059,0.23721987,-0.20205705,-0.05654675,-0.47018886,0.20099384,0.16992356,0.41410157,-0.14570558,-0.15263501,-0.027827488,-0.21840262,0.07757685,-0.1075218,-0.11619149,0.36610067,-0.034570158,0.23613119,-0.13241799,0.0040344982,0.3700129,0.1659619,-0.2931896,-0.36269203,-0.341651,-0.010956987,-0.3350345,0.008281528,0.12818457,0.26765215,-0.070275456,-0.04269843,-0.10169091,-0.0077519,0.10732366,0.009099126,-0.13934691,0.04195703,0.07473196,-0.38915464,0.086773194,0.06416791,0.15656905,-0.25492072,0.12330659,-0.06307622,0.041791305,0.072034135,0.13090523,-0.16160718,0.26203758,0.016765403,0.14071442,-0.28589094,0.23768045,0.06375067,0.11920187,0.16589342,0.1867603,0.31508964,0.08621662,0.09608884,-0.037840586,-0.34328377,0.09894937,-0.031064447,-0.058340125,-0.18717644,0.0633578,-0.16697906,-0.0682763,0.09403615,0.19685695,0.12703475,0.05225384,0.3404886,-0.0007451427,-0.026125226,0.052151665,0.47817758,0.18246137,0.2229298,-0.39439446,0.14656445,0.07682804
said,-0.15172955,0.0042715287,-0.07006195,0.008494251,-0.03295411,-0.30327246,0.24609321,0.4288906,-0.3426143,-0.09749908,-0.049160857,-0.4371242,-0.0060509006,-0.037309688,0.052585967,-0.15218964,0.25518197,-0.19729987,-0.04026635,-0.46957755,0.20503987,0.15536918,0.40047,-0.13316247,-0.1427576,-0.027174918,-0.23005201,0.102620065,-0.11685862,-0.116973795,0.36475405,-0.02468852,0.2352989,-0.13569161,-0.011143209,0.36074394,0.1788213,-0.28849936,-0.35874748,-0.3168335,0.0027243318,-0.3327587,0.0027810114,0.11848407,0.26153177,-0.0656078,-0.048482805,-0.09949615,0.0072145113,0.12711053,0.01739341,-0.13373834,0.046861824,0.0869771,-0.38203707,0.08139101,0.050209627,0.14778268,-0.25801256,0.13011077,-0.061508678,0.05469761,0.08547776,0.12826522,-0.16254103,0.2566013,0.018521054,0.12473355,-0.27366424,0.2353026,0.08655113,0.12809941,0.16389874,0.16670774,0.32785422,0.08889254,0.11511442,-0.026128953,-0.32777226,0.104550704,-0.032584846,-0.04285986,-0.19848454,0.07209358,-0.18434069,-0.07657251,0.08663845,0.19717403,0.13643031,0.05320932,0.3365564,0.014669904,-0.01628913,0.060877923,0.48546103,0.16258545,0.2181771,-0.39173073,0.1506239,0.08902247
in,-0.14604981,0.015453654,-0.05600055,-0.021083206,-0.045893993,-0.29346454,0.23505321,0.4143457,-0.33168864,-0.11214381,-0.037369806,-0.43879673,-0.00086360687,-0.03908423,0.046336602,-0.16376774,0.25604182,-0.15934412,-0.039524615,-0.448333,0.20004016,0.12575498,0.39513206,-0.11474129,-0.14225043,-0.011705681,-0.21464583,0.09063112,-0.107832834,-0.11462785,0.34518006,-0.026561845,0.2219775,-0.13755691,-0.0014839784,0.32744327,0.19044392,-0.29108778,-0.3518894,-0.31281963,-0.010438036,-0.328323,-0.0038493427,0.11439067,0.23325102,-0.07354945,-0.0429193,-0.11281199,-0.00067482016,0.10941354,0.013796335,-0.1455041,0.062218606,0.08711873,-0.36532477,0.08571578,0.047639012,0.13883437,-0.2476625,0.12383744,-0.06473092,0.048134055,0.08728724,0.12737538,-0.17012152,0.26387417,0.006023113,0.1120694,-0.26243848,0.22414447,0.102246426,0.13649844,0.15689693,0.17032869,0.31159323,0.11756542,0.113400064,-0.025647307,-0.3326434,0.1138581,-0.030158428,-0.023764074,-0.17963429,0.07650298,-0.19901185,-0.03960653,0.07547748,0.17982538,0.12784666,0.0558236,0.3342233,0.013668452,-0.010232624,0.050565664,0.452076,0.1683344,0.23060317,-0.3974998,0.13672295,0.09001
alice,-0.12723137,0.023666464,-0.05727035,0.004350095,-0.033303555,-0.29902172,0.24496597,0.4205177,-0.33844307,-0.10143082,-0.03693192,-0.4176999,-0.012993031,-0.03694238,0.056137905,-0.17315081,0.2454415,-0.18144946,-0.053131435,-0.46860173,0.19700788,0.13322589,0.38889107,-0.13453667,-0.15933307,-0.032669,-0.22923778,0.102769904,-0.10235075,-0.10738093,0.33961394,-0.03809203,0.22279567,-0.1475449,-0.007618549,0.34005588,0.18145949,-0.2904577,-0.3618772,-0.32969797,-0.015763856,-0.33745885,0.014858416,0.12707788,0.25482053,-0.06655927,-0.0337153,-0.11021385,0.000511895,0.12509732,0.020035908,-0.14740339,0.058361135,0.085140504,-0.383253,0.08394815,0.05708559,0.15418059,-0.26780546,0.12516226,-0.05738075,0.050491188,0.07889594,0.12157492,-0.16175942,0.26710135,0.029915042,0.14671816,-0.27798656,0.2365165,0.08412848,0.13425647,0.16368844,0.1772978,0.32358718,0.10537208,0.10211609,0.00039298582,-0.33260396,0.09841915,-0.033792224,-0.025114052,-0.19914293,0.057867553,-0.17491396,-0.056347866,0.084246665,0.17629501,0.1350685,0.05611215,0.34633532,0.0030285132,-0.026004668,0.05502892,0.47074333,0.16070485,0.21439584,-0.39435533,0.123035684,0.090632804
was,-0.15965228,0.014243462,-0.060006633,-0.031857535,-0.028699864,-0.29785734,0.25910893,0.4324447,-0.31612962,-0.13758577,-0.04872009,-0.46277675,-0.026355624,-0.03561,0.03223939,-0.19271486,0.25601184,-0.14329779,-0.035321496,-0.45640844,0.2047303,0.12517186,0.38977775,-0.10436645,-0.14242631,-0.012422504,-0.24236742,0.11679206,-0.12333243,-0.105577074,0.3469715,-0.029273096,0.22806157,-0.16112322,-0.030035468,0.3133276,0.19865409,-0.29072225,-0.35119957,-0.30973253,-0.014952252,-0.32925743,0.004447243,0.10347354,0.23214409,-0.077096015,-0.032141812,-0.123969756,8.709332e-05,0.12375831,0.035434168,-0.15696368,0.08915778,0.07479974,-0.3682981,0.08299042,0.05442687,0.15499917,-0.2523038,0.13399664,-0.071614236,0.035410855,0.11783952,0.13829952,-0.16491784,0.26812568,0.032274265,0.12698744,-0.2858426,0.23750965,0.12393842,0.13464448,0.1881695,0.15919468,0.32409593,0.106695294,0.12942563,-0.014188285,-0.34862378,0.110289484,-0.053691726,-0.014385055,-0.18844907,0.07427659,-0.20609523,-0.04571897,0.10619944,0.1695881,0.11611736,0.053382803,0.35378322,0.0070084864,0.016381023,0.03223981,0.48250905,0.17734724,0.24079065,-0.38526666,0.13878365,0.1111754
that,-0.15652116,0.024247406,-0.07068983,-0.0072062444,-0.042210065,-0.29092446,0.23491976,0.40013778,-0.33990744,-0.09509486,-0.05135604,-0.42604563,-0.018449169,-0.043097842,0.06793691,-0.15513334,0.2626563,-0.16972655,-0.041220628,-0.45628715,0.20725179,0.14442155,0.40165332,-0.11645304,-0.1366515,-0.014227864,-0.22965539,0.08967961,-0.11242144,-0.10608582,0.360962,-0.022844397,0.23062125,-0.15362388,0.0037786153,0.33787307,0.1715039,-0.2856089,-0.35625237,-0.32371587,-0.008163805,-0.34717673,0.012891608,0.12178372,0.25292856,-0.07439932,-0.050945777,-0.11229045,0.0037129666,0.1104753,0.01728311,-0.14297633,0.04974742,0.085100316,-0.3847712,0.090976454,0.059544068,0.14348127,-0.26801392,0.13581176,-0.051962726,0.05890134,0.083557084,0.13725518,-0.1436405,0.2613072,0.035358347,0.13864738,-0.26430282,0.23453008,0.083673924,0.1149724,0.15500557,0.17738062,0.3313194,0.10945779,0.11037321,-0.007476934,-0.3210738,0.09893291,-0.035981596,-0.043815363,-0.1809417,0.06817142,-0.18374151,-0.055797733,0.10062419,0.19622318,0.12862793,0.03930662,0.34832194,0.01319772,-0.01705399,0.044738773,0.45375568,0.16386212,0.2332115,-0.4015449,0.12902413,0.10078378
as,-0.13461193,0.03693883,-0.059883833,-0.028311577,-0.025489304,-0.30769116,0.27172852,0.42131346,-0.31551087,-0.12558098,-0.02587459,-0.4586538,-0.026354829,-0.05980777,0.037983507,-0.1714144,0.27554524,-0.17312628,-0.049089924,-0.46995994,0.21240392,0.14549455,0.38066533,-0.1250557,-0.16608147,-0.01889575,-0.2299519,0.09409974,-0.108089514,-0.11427917,0.34186217,-0.03803107,0.23165384,-0.1725639,-0.018626943,0.3257151,0.21975851,-0.27457288,-0.3632979,-0.3117896,0.004606043,-0.34432733,0.018978562,0.120705366,0.25982282,-0.056083802,-0.05537806,-0.10910775,0.007943573,0.120406635,0.0287567,-0.13542037,0.07871909,0.06768323,-0.3934973,0.08075463,0.07208268,0.16209526,-0.27070427,0.14782123,-0.07787488,0.03254472,0.09487248,0.13931875,-0.14595072,0.27120903,0.022047695,0.13107222,-0.27802032,0.22156045,0.09652419,0.116770774,0.18983681,0.17311208,0.3254853,0.09968624,0.13747518,-0.010033075,-0.33124056,0.11218456,-0.05542359,-0.02624153,-0.19358283,0.04483554,-0.1884028,-0.05425852,0.10719964,0.19297849,0.124671794,0.040115044,0.35589483,0.019488407,0.008768138,0.051343426,0.4759418,0.1587157,0.23213895,-0.37968293,0.12049957,0.10994924
her,-0.17267546,0.028455252,-0.05758671,-0.008671358,-0.04415358,-0.29095304,0.24134812,0.4092802,-0.34030673,-0.09922259,-0.043547753,-0.45064178,-0.02754142,-0.027122255,0.037512258,-0.1883161,0.24506235,-0.1511523,-0.041260682,-0.4412405,0.20250307,0.13337505,0.37833145,-0.10870416,-0.14529324,-0.018486746,-0.22579053,0.10948019,-0.11939906,-0.12603194,0.34985524,-0.03901709,0.2146022,-0.14414766,-0.023485715,0.330489,0.20812659,-0.29734716,-0.3614673,-0.3072364,-0.0036520595,-0.34053335,-0.004861834,0.11311195,0.24287227,-0.059986625,-0.05015447,-0.12336951,0.006682104,0.09717005,0.024646718,-0.14946505,0.09354561,0.090347536,-0.37741202,0.0935657,0.06419427,0.1422834,-0.2555622,0.12878795,-0.055068072,0.049424358,0.08307478,0.1213866,-0.14259024,0.25145417,0.016630579,0.14003672,-0.26929712,0.23669058,0.087993726,0.124253765,0.17222852,0.15517426,0.31930208,0.12040065,0.11451666,-0.0064513553,-0.32633424,0.09886924,-0.04706068,-0.031964265,-0.19140416,0.06819584,-0.20042767,-0.034458496,0.07252317,0.16865365,0.13116167,0.056324653,0.33211264,0.017627072,-0.01043117,0.030212812,0.46139908,0.17447415,0.22871344,-0.3842031,0.139816,0.111183845
with,-0.14924337,-0.0002245776,-0.05289104,-0.011444252,-0.027717097,-0.2784467,0.22636722,0.4083528,-0.32307437,-0.09543569,-0.05189829,-0.43329483,-0.0220592,-0.016524706,0.038689785,-0.15436529,0.23706308,-0.16110733,-0.0414706,-0.44678748,0.21187802,0.13909633,0.38519573,-0.10936507,-0.13432671,-0.0072068907,-0.20386955,0.08319623,-0.120082706,-0.117949165,0.35509774,-0.03189621,0.20719586,-0.15166399,-0.0029725633,0.32404792,0.18530741,-0.29389027,-0.35557455,-0.3234534,-0.011053391,-0.33761802,-0.0065714377,0.11194373,0.24915224,-0.06669511,-0.052489582,-0.11775536,0.011818532,0.1095006,0.014437876,-0.15201628,0.06979037,0.08656285,-0.36900112,0.08989883,0.046154525,0.13022608,-0.26269463,0.11459928,-0.049872376,0.058402386,0.077974044,0.1304018,-0.15321617,0.26066867,0.008820345,0.1279942,-0.25856972,0.23685706,0.095237024,0.12924019,0.15891522,0.15314667,0.30903015,0.09176782,0.118981175,-0.018768348,-0.31051424,0.098494165,-0.033774443,-0.047207195,-0.20112513,0.059308946,-0.19285889,-0.043211162,0.06760013,0.17161813,0.11174483,0.042967636,0.33117768,0.012810749,-0.0038130335,0.05312526,0.4448738,0.178706,0.20419815,-0.3932946,0.121501446,0.103837065
at,-0.15276463,0.02041061,-0.056477044,-0.020738723,-0.025628723,-0.2887027,0.24311613,0.40648764,-0.32414722,-0.107521854,-0.050989795,-0.43343842,-0.0026445827,-0.03427761,0.054918606,-0.17666969,0.24301822,-0.15630718,-0.02964832,-0.44520846,0.20549406,0.122139186,0.36833668,-0.11683462,-0.13871297,-0.019981112,-0.21772146,0.08428149,-0.11610959,-0.11680313,0.3394731,-0.024175875,0.19655053,-0.14975788,-0.0052240216,0.32644638,0.16998285,-0.2779839,-0.33417466,-0.31652483,0.0016385455,-0.34095097,0.011966981,0.10934836,0.24175893,-0.07812435,-0.045902997,-0.115366384,0.00419052,0.11212341,0.02698255,-0.12839681,0.082698345,0.0812415,-0.35056856,0.08599683,0.058302503,0.13722709,-0.24890782,0.1155933,-0.06033548,0.04066229,0.07598913,0.124571845,-0.1472672,0.25738376,0.023575373,0.12934424,-0.2534077,0.21824403,0.09194535,0.11402822,0.16759123,0.16387604,0.31738618,0.11462841,0.11739218,-0.0008440408,-0.31402758,0.112256184,-0.045922615,-0.020100199,-0.17399214,0.062888674,-0.17509803,-0.037417144,0.08441503,0.17334694,0.12201141,0.051014055,0.33694446,0.015052374,0.0028875081,0.043670777,0.4614255,0.17787096,0.20759685,-0.38766557,0.13428865,0.08577411
s,-0.1422763,0.0024856192,-0.06964431,-0.009760125,-0.026503423,-0.29806185,0.24513876,0.42638612,-0.33967823,-0.11033413,-0.0478423,-0.44633403,-0.007697284,-0.0149780335,0.058603566,-0.16486262,0.25197217,-0.15976046,-0.027054096,-0.4469286,0.21446826,0.12461207,0.39019978,-0.12653753,-0.13685738,-0.023618344,-0.22560687,0.105780065,-0.10379224,-0.120081775,0.36827978,-0.03077762,0.20165795,-0.14816058,-0.0068371184,0.32736096,0.1871503,-0.28861222,-0.34858683,-0.33665404,-0.016782384,-0.3468995,0.011943376,0.120957285,0.24239625,-0.06613722,-0.04753564,-0.113649525,0.010543412,0.10908085,0.012657314,-0.15304822,0.063022,0.08327389,-0.3735609,0.10203519,0.05296521,0.15070255,-0.2483047,0.12531093,-0.062998086,0.060503114,0.09386666,0.13962458,-0.16924724,0.27585378,0.0296002,0.14142157,-0.26965123,0.23930627,0.10588079,0.117392495,0.17641751,0.16994195,0.32774937,0.099500954,0.10719217,-0.008536268,-0.34646827,0.09529043,-0.04880361,-0.037776906,-0.19162856,0.0765522,-0.17338459,-0.050821252,0.08146917,0.18769298,0.12083421,0.035485175,0.34528717,-0.0009103863,-0.0075841956,0.05849816,0.4716736,0.18101336,0.23046911,-0.40880895,0.1376103,0.09637668
t,-0.12576449,0.016292613,-0.053133745,0.004631136,-0.03674236,-0.26868463,0.25028244,0.4011921,-0.33054075,-0.08184983,-0.049090166,-0.41407117,0.013290551,-0.03879939,0.07349875,-0.14615817,0.24956228,-0.20690171,-0.05307432,-0.4655572,0.19776465,0.1672708,0.38279712,-0.14416371,-0.16877422,-0.023135284,-0.21980911,0.08300655,-0.104178526,-0.09114221,0.34584865,-0.03364031,0.22800772,-0.14174338,-0.008287908,0.37761018,0.14814126,-0.30377412,-0.37131268,-0.33212197,-0.003134733,-0.32219556,0.012711378,0.13718261,0.2636078,-0.06927923,-0.052299473,-0.11962102,1.4218657e-05,0.11860712,-0.0012527356,-0.14601526,0.019440698,0.06881145,-0.378073,0.105722554,0.06285292,0.15743214,-0.25242496,0.13630423,-0.054606926,0.035597235,0.059989944,0.11669328,-0.15103772,0.26938134,0.012868537,0.13063829,-0.27176473,0.23119171,0.067211986,0.11514208,0.16193146,0.173277,0.31805626,0.0909935,0.117150545,-0.023759441,-0.322519,0.09246281,-0.044496406,-0.043711755,-0.20149167,0.06480196,-0.15802874,-0.07305102,0.09032521,0.20113215,0.12403311,0.0313085,0.3399876,-0.006546582,-0.042854097,0.0657376,0.43930814,0.15980703,0.20359284,-0.38263574,0.14388128,0.09212993
on,-0.15517415,0.018833978,-0.0641862,-0.0020371194,-0.032708067,-0.28684837,0.24330872,0.4096928,-0.31843704,-0.106338486,-0.038981274,-0.43883312,-0.009134273,-0.03000887,0.04986208,-0.18139921,0.2492121,-0.15462103,-0.050257348,-0.44766417,0.20753244,0.13595243,0.3772954,-0.10546221,-0.14417623,-0.023252048,-0.21397333,0.092746936,-0.12751204,-0.12473148,0.35569033,-0.041820038,0.21583153,-0.15225406,-0.01279107,0.32321206,0.19569616,-0.27666634,-0.3493366,-0.31574517,-0.0074582156,-0.3405681,-0.0050025126,0.11652718,0.243787,-0.0806467,-0.052479897,-0.115807615,0.008894996,0.11332614,0.03261749,-0.1531151,0.07063479,0.07919816,-0.38020113,0.090064526,0.062223952,0.13743177,-0.27558193,0.11391838,-0.059676986,0.063722275,0.08942167,0.116570555,-0.16763908,0.27084512,0.017363237,0.12273573,-0.26471,0.22647344,0.10511292,0.1254929,0.1551416,0.15419967,0.32392406,0.11708673,0.11547453,-0.004682515,-0.33615327,0.10744153,-0.048563123,-0.028861463,-0.19409606,0.060161836,-0.19508979,-0.0315916,0.082165755,0.17788161,0.116594814,0.056775365,0.32518372,0.013725925,-0.008119134,0.051279664,0.47194594,0.16679,0.22547208,-0.39619306,0.11766072,0.09798188
all,-0.15145582,0.019463582,-0.04647713,0.0035581272,-0.04651934,-0.27772823,0.2299859,0.40241995,-0.33212984,-0.08388955,-0.042307526,-0.42409462,-0.002478493,-0.032868475,0.045993064,-0.17169243,0.25391826,-0.17809677,-0.044850864,-0.44259578,0.19931006,0.12776801,0.38502327,-0.11823785,-0.14005877,-0.013825304,-0.22144538,0.09589204,-0.10839136,-0.113635495,0.3579544,-0.036068253,0.22072119,-0.15856919,-0.0035628031,0.32092884,0.17625995,-0.30425972,-0.353492,-0.32856765,-0.012195578,-0.3350347,0.009222521,0.112068444,0.24194486,-0.08068535,-0.04422543,-0.117662944,-0.012017996,0.10841111,0.027386945,-0.13643153,0.051292438,0.087280236,-0.38448948,0.07647803,0.04962463,0.13769783,-0.2731999,0.10912594,-0.054353733,0.05704087,0.06825529,0.13315512,-0.15170458,0.26066768,0.035399012,0.1363388,-0.2750163,0.2371331,0.09076638,0.13041103,0.1601595,0.15716553,0.320591,0.09763773,0.10903832,-0.007332537,-0.31872493,0.11422211,-0.0464071,-0.043488972,-0.17964412,0.06726369,-0.19127676,-0.04880122,0.08455863,0.18106973,0.11428989,0.05307276,0.34279275,-0.0011773284,-0.011892808,0.04468344,0.45259562,0.17052047,0.21082467,-0.3812347,0.12383954,0.095271245
this,-0.15982877,0.024962014,-0.05562662,2.1036196e-05,-0.040956542,-0.30595857,0.24652825,0.4205112,-0.3420767,-0.11377618,-0.04735989,-0.45621595,-0.005503474,-0.03194723,0.06283683,-0.16938952,0.25051203,-0.17349629,-0.038218476,-0.45898324,0.21214353,0.14391595,0.39476758,-0.10891199,-0.13903935,-0.011218192,-0.2358956,0.10696099,-0.11622642,-0.12139131,0.3580112,-0.024970176,0.21700208,-0.15797518,-0.0027640704,0.34643903,0.20253961,-0.30545697,-0.3717323,-0.31954113,-0.0074937604,-0.3480072,-0.007686116,0.10798477,0.24927884,-0.07468458,-0.044210494,-0.11303602,-0.0042954236,0.11149524,0.034722652,-0.15507594,0.057439905,0.087746374,-0.38958788,0.1024332,0.055220712,0.14038292,-0.2694456,0.12564321,-0.0716609,0.054351978,0.085555434,0.13849503,-0.15093142,0.27243108,0.014479677,0.13548456,-0.27927732,0.24593903,0.08813477,0.12734912,0.16855052,0.16417827,0.31326196,0.116270125,0.10668556,-0.013608969,-0.33204514,0.114563905,-0.047443237,-0.034652214,-0.18469095,0.06061341,-0.19768383,-0.04393196,0.09310464,0.19192861,0.13751228,0.048265245,0.34534863,0.0029148606,-0.017916836,0.04912092,0.47867566,0.1652582,0.227229,-0.40730757,0.13199301,0.11142668
for,-0.15550181,0.006171616,-0.04938289,-0.01903444,-0.046273373,-0.2882268,0.22987671,0.40100107,-0.31986296,-0.10127148,-0.05407563,-0.4336998,-0.016152076,-0.031974185,0.059546694,-0.16219908,0.25779584,-0.1756151,-0.031148124,-0.44501233,0.21323203,0.13849525,0.39070162,-0.12384116,-0.15157443,-0.0070582656,-0.22162332,0.101484634,-0.10774417,-0.11521454,0.36196592,-0.028312864,0.19814652,-0.15837127,-0.012440264,0.31592852,0.19038281,-0.2843205,-0.35783112,-0.3072407,0.002141514,-0.32518896,0.013922685,0.09813829,0.24137157,-0.07870703,-0.045752533,-0.109237865,0.0043329825,0.114778645,0.028075075,-0.13956594,0.076016866,0.09332698,-0.38464546,0.09766735,0.061902195,0.15661882,-0.25749293,0.11752531,-0.06100874,0.051171314,0.07780356,0.13882403,-0.15273231,0.26149797,0.023430211,0.11836358,-0.25727117,0.24195145,0.091578655,0.12540291,0.1559054,0.15477853,0.3195167,0.101591714,0.117416084,-0.012435407,-0.32896838,0.10699439,-0.04547524,-0.034968127,-0.18660536,0.071361504,-0.1886111,-0.0463956,0.07105454,0.19555813,0.110162705,0.0542094,0.33736968,-0.00209888,-0.018375548,0.036854662,0.45137715,0.17813616,0.22818296,-0.39064866,0.12615682,0.104576804
had,-0.15820578,0.01818468,-0.051810507,-0.023585593,-0.051455013,-0.30365044,0.26164258,0.41251066,-0.33406344,-0.11910477,-0.038739495,-0.43859196,-0.013875586,-0.037385568,0.041143484,-0.16991371,0.25474146,-0.15891074,-0.058940146,-0.45812854,0.19609278,0.13367963,0.37624976,-0.10467492,-0.15092899,-0.028039133,-0.22085543,0.08559999,-0.11687582,-0.12494948,0.3682835,-0.019013343,0.22120668,-0.14976026,-0.011368013,0.32074305,0.20877293,-0.30122817,-0.34710073,-0.31715542,-0.018816331,-0.34540737,0.019340537,0.10184782,0.2548084,-0.07185847,-0.03619146,-0.11404339,0.01426041,0.11122617,0.029416062,-0.13002056,0.07657634,0.079525374,-0.3759194,0.10137319,0.066029385,0.16221172,-0.2577135,0.13671166,-0.049413376,0.052118205,0.08296825,0.13630606,-0.15485252,0.2607972,0.004871469,0.11466874,-0.27544767,0.24352677,0.093395665,0.117972575,0.17525463,0.16553643,0.32082283,0.10919197,0.122356586,-0.0076925554,-0.3280979,0.10930141,-0.02779631,-0.034016557,-0.19962724,0.07578558,-0.18468326,-0.048589073,0.07910304,0.19093211,0.13225354,0.05314766,0.34044728,-0.0041685365,-0.0032401339,0.041345112,0.47244677,0.15763913,0.23959386,-0.40494457,0.13912873,0.08730178
not,-0.13161594,0.016712923,-0.05517643,-0.008449222,-0.038576413,-0.29092646,0.23732287,0.41646242,-0.32691562,-0.08722303,-0.054126944,-0.41947043,-0.00518793,-0.038231727,0.043647632,-0.15522742,0.26234388,-0.1765565,-0.053219873,-0.46713486,0.20002756,0.14641507,0.38404465,-0.14351377,-0.15536696,-0.018654808,-0.23156604,0.09208191,-0.10775471,-0.09802513,0.35235158,-0.025561612,0.21490403,-0.15688103,-0.0039328593,0.36042437,0.17983048,-0.29800823,-0.36062968,-0.33344257,-0.0061229323,-0.34205052,0.020344703,0.11846558,0.25133637,-0.08220424,-0.04738608,-0.11946641,-0.000892818,0.113077044,0.0102273,-0.14390717,0.04360789,0.082212344,-0.3857634,0.08602529,0.043993026,0.14965722,-0.28002605,0.12532793,-0.050820258,0.04343346,0.08051283,0.13522951,-0.14537463,0.265003,0.037934892,0.12261993,-0.2762486,0.2285876,0.07909335,0.11094006,0.15279017,0.17064732,0.33153,0.089927964,0.104186244,-0.007346386,-0.33513618,0.10973657,-0.030401435,-0.02664768,-0.19469677,0.06645457,-0.1935815,-0.063756436,0.099277675,0.2115481,0.120454565,0.048965048,0.33732057,-3.8448947e-05,-0.009365058,0.048472576,0.4635815,0.15966918,0.21372962,-0.3875226,0.12270472,0.097555205
but,-0.157741,0.006498414,-0.067423865,-0.0010082464,-0.0240632,-0.28281873,0.2488885,0.407675,-0.33585787,-0.08726857,-0.052675724,-0.4186968,-0.0029449805,-0.03501822,0.041579977,-0.16617633,0.25413877,-0.18151821,-0.03821291,-0.461359,0.21125883,0.13631272,0.39917305,-0.13026798,-0.15682903,-0.030357605,-0.22352885,0.10354076,-0.11238697,-0.10058309,0.35364366,-0.02468743,0.21936785,-0.14143762,-0.008333913,0.34671327,0.16545595,-0.28628507,-0.35388827,-0.31722763,0.0014553118,-0.3405913,0.0044238633,0.112079434,0.24623248,-0.07297219,-0.036004256,-0.117205955,0.010997156,0.11437908,0.024220219,-0.13802484,0.05973465,0.081878476,-0.37813392,0.093766354,0.055102307,0.14557256,-0.27191842,0.113688804,-0.057434283,0.043237228,0.07712053,0.12245164,-0.16239768,0.26002377,0.033915002,0.13229077,-0.27238038,0.24003246,0.09094855,0.11229112,0.15996562,0.17152922,0.31481028,0.084200285,0.11917408,-0.012851336,-0.33174935,0.11160765,-0.04124107,-0.024984857,-0.19746487,0.07242955,-0.18381345,-0.06446296,0.08149991,0.19823776,0.12374877,0.04780297,0.3498969,-0.005834774,-0.016078398,0.040768724,0.45036837,0.16283044,0.22350472,-0.39250603,0.13524233,0.09405457
be,-0.14694832,0.021925762,-0.06689998,-0.013004396,-0.02807192,-0.29432225,0.25511453,0.40479395,-0.3289985,-0.09968692,-0.03762513,-0.4505773,-0.015334625,-0.028945558,0.044725873,-0.17948802,0.2546302,-0.1889256,-0.04637579,-0.44017372,0.19228813,0.14368996,0.40887544,-0.11889899,-0.15825155,-0.034965616,-0.22875151,0.09976586,-0.116353124,-0.11568569,0.36760366,-0.045831352,0.21391134,-0.15810233,-0.0122480225,0.32321593,0.1806406,-0.27851975,-0.34667605,-0.3280289,-0.024466472,-0.33878285,-0.002304152,0.111718975,0.24077752,-0.06412686,-0.053747945,-0.10385724,-0.0008697792,0.124010846,0.023944058,-0.15537892,0.06440363,0.07500181,-0.37960726,0.08822336,0.07391213,0.15612705,-0.26678783,0.13148883,-0.06607481,0.03937315,0.092909954,0.13092335,-0.16079643,0.2587646,0.011369984,0.13881397,-0.2722386,0.23231506,0.10447972,0.12732764,0.17578872,0.17242593,0.31771427,0.08646023,0.095920175,-0.02491259,-0.3324361,0.09718913,-0.04415157,-0.04431888,-0.1822641,0.066932015,-0.16495566,-0.06580212,0.08534091,0.18920217,0.14345902,0.05354153,0.3483715,0.0058392496,-0.014190401,0.033386137,0.4650906,0.1746503,0.23653004,-0.3942781,0.12562834,0.08614155
or,-0.14358541,0.013052502,-0.06684341,-0.0069925413,-0.042810407,-0.2748776,0.23917101,0.39460486,-0.320783,-0.087897204,-0.047033034,-0.42763722,2.3388724e-05,-0.020020453,0.044628154,-0.15662126,0.2555377,-0.17754179,-0.03765009,-0.44080982,0.21380195,0.13787308,0.39271057,-0.10476739,-0.13509715,-0.02708222,-0.21385509,0.09298885,-0.11328472,-0.11066531,0.36208874,-0.023980692,0.21794412,-0.1550467,-0.011097067,0.32951292,0.1831612,-0.29056704,-0.35474205,-0.32191002,-0.023153087,-0.3207609,0.01038816,0.10169733,0.24596938,-0.06146262,-0.04745017,-0.113922015,0.0022772723,0.1183507,0.008050308,-0.13895248,0.051812924,0.07904615,-0.37276003,0.08407854,0.051266953,0.14873472,-0.2661534,0.12719889,-0.053370364,0.046087265,0.072783805,0.12931658,-0.16043556,0.24539846,0.0076616537,0.119038396,-0.25419024,0.23769546,0.09408293,0.1122998,0.1630704,0.16371185,0.30819884,0.09468814,0.10400131,-0.018118242,-0.33009958,0.10958972,-0.03704525,-0.047200475,-0.19819576,0.07488737,-0.1908682,-0.053987116,0.08369781,0.18868276,0.11845694,0.038813762,0.32532036,0.00816082,-0.023322951,0.03946697,0.44720176,0.162282,0.20930244,-0.40468574,0.13666065,0.10290156
they,-0.15794326,0.0030407659,-0.058380447,-0.011635888,-0.022296349,-0.28029934,0.23099878,0.40065148,-0.34380218,-0.09031924,-0.0473959,-0.4375286,-0.006690151,-0.022540698,0.05898622,-0.17091805,0.25323972,-0.18796304,-0.053339873,-0.45666102,0.20247807,0.14240898,0.38599083,-0.116663836,-0.13215092,-0.015339764,-0.21607624,0.104206845,-0.1134585,-0.12011499,0.3482243,-0.023417123,0.20296144,-0.15223654,0.003859151,0.32999477,0.18344933,-0.30518267,-0.35039365,-0.31913453,-0.02136011,-0.34121886,0.014134506,0.114901304,0.2494255,-0.06603324,-0.057301614,-0.09872049,-0.0023644373,0.1064638,0.023960473,-0.1438385,0.054270364,0.08847409,-0.38121355,0.08004377,0.06384424,0.15355681,-0.2546312,0.120484985,-0.0524433,0.046585113,0.07932515,0.13835934,-0.15574072,0.25709113,0.017947864,0.13002951,-0.2801458,0.24196425,0.08915124,0.1295763,0.15559967,0.15819891,0.30932721,0.0945149,0.11024816,-0.015875587,-0.32464173,0.10855839,-0.04613509,-0.04451234,-0.20138584,0.069489785,-0.18647987,-0.040060017,0.0751572,0.19320926,0.12755139,0.045467593,0.33491153,0.014758908,-0.013679404,0.059120197,0.4629443,0.18228248,0.22213583,-0.4103081,0.12470332,0.09468837
so,-0.1547939,0.025990935,-0.05822719,-0.0019453295,-0.046373114,-0.293822,0.2609881,0.41418797,-0.32533127,-0.1020141,-0.04028868,-0.44672328,-0.009214737,-0.0490166,0.043034337,-0.18535191,0.25926015,-0.17524152,-0.036614258,-0.461282,0.21797058,0.12404818,0.38097286,-0.11325433,-0.15106037,-0.017069897,-0.22736433,0.098387025,-0.12444702,-0.12738973,0.3610302,-0.02960689,0.22471268,-0.16164127,-0.0037501056,0.3183145,0.20391627,-0.2818949,-0.36475873,-0.31019318,-0.018288828,-0.348899,0.008251473,0.11478953,0.23997264,-0.07653602,-0.034049887,-0.10984861,0.0018609713,0.11631333,0.022035563,-0.13742419,0.071914814,0.09580447,-0.38893482,0.09708549,0.061399437,0.14038475,-0.27838573,0.13657255,-0.051753685,0.046675462,0.09249659,0.13432753,-0.15923333,0.2631917,0.017882945,0.13856046,-0.26938564,0.22360307,0.09521747,0.12058897,0.17518423,0.16099145,0.331022,0.109704204,0.11384332,0.0021681215,-0.32723942,0.1005645,-0.047466505,-0.034372635,-0.19739132,0.06778534,-0.20396397,-0.05347688,0.08951281,0.18814047,0.13057902,0.041927796,0.3374075,0.0115169715,0.0035487842,0.04732755,0.4839943,0.16799678,0.22277308,-0.3987221,0.115809634,0.092369385
very,-0.14862241,0.002511251,-0.04742115,-0.0053683193,-0.03933864,-0.28703526,0.22425458,0.38155046,-0.31033313,-0.100508735,-0.036306143,-0.42310324,0.002918878,-0.02787692,0.052496597,-0.1699087,0.24274512,-0.17033553,-0.036040265,-0.4304336,0.19524561,0.13416415,0.37529528,-0.12257199,-0.12982957,-0.016184201,-0.2204237,0.10110714,-0.109481506,-0.09849683,0.3371731,-0.020161321,0.20660576,-0.1448031,-0.011582259,0.33239228,0.17943493,-0.2880913,-0.33914334,-0.31328323,-0.011808021,-0.33641198,0.015893852,0.11167054,0.24930194,-0.0585786,-0.048365813,-0.100732826,-5.4725147e-05,0.09800223,0.028412955,-0.12820259,0.07075629,0.07014717,-0.3798248,0.089472674,0.04177232,0.14819887,-0.25665894,0.12575306,-0.048374612,0.05054838,0.0739577,0.12702155,-0.13562232,0.2397984,0.014999906,0.12450497,-0.2517078,0.23159769,0.08552497,0.12172681,0.15378189,0.16140954,0.31508875,0.10888959,0.10191006,-0.018747551,-0.3021857,0.11536479,-0.026870428,-0.045110315,-0.18834801,0.05183085,-0.18235266,-0.04990587,0.07214327,0.1725608,0.12832259,0.055612147,0.33406827,0.0068696975,-0.022216339,0.040406317,0.44750446,0.15363884,0.20744714,-0.38174188,0.123656966,0.0838169
what,-0.13663386,0.0017434257,-0.068598755,-0.00854386,-0.029491132,-0.28262597,0.23001961,0.41260192,-0.31590524,-0.10028854,-0.0339951,-0.4164319,-0.0165951,-0.034406587,0.058166612,-0.1480584,0.240469,-0.18597832,-0.03830918,-0.4558935,0.19165713,0.13850716,0.39979073,-0.1342521,-0.13770375,-0.024811143,-0.21089683,0.09805805,-0.106747024,-0.09982441,0.3495056,-0.038749658,0.22666678,-0.14851598,0.0055317334,0.3326904,0.16577107,-0.29603615,-0.3454244,-0.3141392,-0.0053900364,-0.33913404,0.0011516323,0.108243674,0.259111,-0.078272015,-0.037676286,-0.107591055,0.0010875914,0.12191159,0.011945013,-0.15164885,0.05439565,0.08832497,-0.36553234,0.08168323,0.06064342,0.14883462,-0.26457983,0.13071236,-0.06461526,0.05166751,0.07836609,0.12974852,-0.15811431,0.25848848,0.029029176,0.14067833,-0.2768004,0.2384528,0.08994977,0.11450161,0.17073557,0.16500469,0.31056887,0.085673615,0.10376787,-0.015705694,-0.32711625,0.09588804,-0.02817395,-0.04321144,-0.19553013,0.06875955,-0.16889358,-0.05254599,0.08837582,0.18994288,0.12617746,0.053966768,0.32487804,0.004130782,-0.015631732,0.048134416,0.45525935,0.17431986,0.22631696,-0.39005756,0.13945252,0.08468472
is,-0.14581591,0.008040174,-0.06328741,-0.0035338514,-0.04116903,-0.29581553,0.24474367,0.42430025,-0.34274235,-0.10190148,-0.04991949,-0.4253737,-0.020363955,-0.01844321,0.058372196,-0.16066591,0.24444151,-0.1863736,-0.041990355,-0.44900495,0.19337215,0.13909936,0.39852664,-0.1210368,-0.13866812,-0.031343896,-0.21168922,0.084386975,-0.1210788,-0.104151465,0.36460474,-0.038890984,0.21869215,-0.16117817,-0.009173682,0.34905273,0.16949406,-0.29207307,-0.35122895,-0.33104557,-0.026219394,-0.34369925,0.00374066,0.1252131,0.26781702,-0.0627969,-0.047993477,-0.106422596,-0.012970466,0.11186033,0.020428015,-0.13343546,0.04456152,0.06693616,-0.3882692,0.090729624,0.04434936,0.1372118,-0.26988995,0.11851535,-0.067934826,0.049729355,0.06666009,0.13519907,-0.15506016,0.26027843,0.026080215,0.13060701,-0.26925543,0.2403089,0.097260766,0.12117526,0.15225334,0.16852862,0.3378699,0.09933128,0.10344156,-0.025693575,-0.31766135,0.108183116,-0.026340518,-0.055067547,-0.18282138,0.053665947,-0.16914977,-0.054326486,0.087657675,0.18484539,0.1350738,0.05735002,0.3326479,-0.00952877,-0.010179113,0.040816057,0.4528814,0.17305458,0.21716598,-0.40836567,0.15144195,0.090476766
little,-0.16513549,0.006303851,-0.06718923,-0.019806381,-0.050814543,-0.31010762,0.23479192,0.43396774,-0.32899272,-0.111690916,-0.046036012,-0.46109113,-0.0054198825,-0.02484763,0.043792173,-0.18142623,0.2591215,-0.16260137,-0.047719687,-0.45090768,0.23021773,0.14181574,0.40082157,-0.11053738,-0.14646363,-0.022085868,-0.21576157,0.08493507,-0.12450695,-0.12851274,0.3463321,-0.029093836,0.2274987,-0.16461325,-0.014411459,0.33903065,0.18051966,-0.3077959,-0.35874692,-0.32056966,-0.004264432,-0.34436488,0.016541386,0.099057265,0.24833485,-0.05643737,-0.040508084,-0.119483195,0.011848693,0.11261258,0.0056141056,-0.15829474,0.07184575,0.08458665,-0.36816928,0.09227576,0.059010003,0.15396973,-0.25706574,0.11175038,-0.05484762,0.057889346,0.08533857,0.12992403,-0.17431353,0.2796116,0.007697986,0.13008958,-0.28960782,0.24795079,0.120174915,0.12917636,0.1751119,0.16133627,0.3306277,0.12505399,0.11286979,-0.021085644,-0.3587261,0.121876635,-0.044128664,-0.039723348,-0.20058608,0.07855769,-0.18556547,-0.045470964,0.08917826,0.19748196,0.13011761,0.05501963,0.33533224,-0.0032470035,-0.00786409,0.037761353,0.46861655,0.18314177,0.22026384,-0.41339,0.12684399,0.10459768
he,-0.14264756,0.009086983,-0.047701575,-0.0065398966,-0.04703673,-0.28720394,0.23792659,0.40183237,-0.32741958,-0.1021338,-0.036623303,-0.42423216,-0.014696806,-0.024744406,0.056035418,-0.16481885,0.2360183,-0.17521256,-0.03695118,-0.44121554,0.20999822,0.1381998,0.3916565,-0.12619543,-0.14540024,-0.030926326,-0.20847957,0.102556,-0.12387177,-0.11649732,0.36229795,-0.030722862,0.21029851,-0.15673473,0.0061325706,0.32108673,0.17700374,-0.29870862,-0.3583988,-0.32420826,-0.023264112,-0.3380523,-0.0018389187,0.11035768,0.25550532,-0.06084071,-0.04271456,-0.10752658,0.007734222,0.11034861,0.031212019,-0.1330908,0.049638543,0.067333244,-0.37008342,0.09408497,0.05187403,0.14857623,-0.27015284,0.11429786,-0.06959278,0.061996453,0.07119154,0.117910795,-0.16277465,0.2669778,0.022123562,0.121659994,-0.26768705,0.23393911,0.0852296,0.11685288,0.16640186,0.16360947,0.3099226,0.10808121,0.11405112,-0.028144138,-0.33134934,0.112487316,-0.05003373,-0.03784402,-0.19988899,0.07654487,-0.18565999,-0.05539811,0.074201845,0.18827854,0.13226017,0.05414643,0.33294883,0.0059112553,-0.010371284,0.0471665,0.45322794,0.17201245,0.22025609,-0.39221007,0.13015299,0.08183709
if,-0.12908672,0.022563403,-0.068508565,-0.012148747,-0.03518823,-0.27475038,0.24944703,0.3970863,-0.3159613,-0.06932745,-0.036480237,-0.4250615,0.0007040652,-0.044445977,0.058343988,-0.15205784,0.24686196,-0.17341217,-0.047849644,-0.4524896,0.19904493,0.1444485,0.3663484,-0.12077145,-0.162002,-0.02144348,-0.21085943,0.07914745,-0.112594955,-0.11521841,0.33638626,-0.020263005,0.22658679,-0.15178417,-0.0057989317,0.35618216,0.18157923,-0.27818832,-0.3772107,-0.31437522,-0.013872903,-0.3269303,0.01546531,0.116983935,0.26206118,-0.07134313,-0.042588897,-0.10356014,0.0040619466,0.11581449,0.011851188,-0.1292134,0.038792714,0.07373401,-0.37958577,0.07358862,0.05153064,0.15310039,-0.25644872,0.11941322,-0.058489528,0.0377658,0.057817314,0.11967628,-0.13984688,0.24520113,0.021423306,0.1382882,-0.26680264,0.23278211,0.08893999,0.11549697,0.15475392,0.18155004,0.33107585,0.09815919,0.11618482,-0.025913006,-0.30843598,0.1075284,-0.039455093,-0.051225215,-0.2033422,0.049091153,-0.17584379,-0.07482069,0.09129252,0.20058234,0.123545304,0.047370747,0.32625544,0.004912391,-0.015046062,0.054084964,0.4533242,0.16932553,0.22671434,-0.3812454,0.12884253,0.08179212
out,-0.1587377,0.006681328,-0.054638714,-0.02255805,-0.03808834,-0.29101163,0.24933639,0.41119474,-0.33199778,-0.10775169,-0.047728192,-0.44448176,-0.016986664,-0.036145188,0.04490097,-0.16978431,0.26095876,-0.15135093,-0.045782343,-0.44636258,0.2020445,0.13960776,0.39759612,-0.1201672,-0.12685302,-0.004492553,-0.22573961,0.096191786,-0.14086416,-0.119259365,0.3555156,-0.023269761,0.2292102,-0.16437829,-0.023594435,0.32185268,0.18043892,-0.308688,-0.3647054,-0.31565952,-0.014259513,-0.33116364,-0.0019546645,0.112410314,0.25475425,-0.078727864,-0.031913444,-0.12833454,0.007941155,0.113464266,0.022086374,-0.15662847,0.07514834,0.08562133,-0.38260883,0.081766315,0.039683055,0.15132247,-0.26842806,0.10566869,-0.040528186,0.058197558,0.08644562,0.12892869,-0.16784544,0.27570072,0.0039644493,0.11444644,-0.28690165,0.24326794,0.088130124,0.14067861,0.17230985,0.14356291,0.32245225,0.11566195,0.11097043,-0.0055016754,-0.34033418,0.113616146,-0.028262423,-0.029862847,-0.2095389,0.0700595,-0.19731888,-0.04070173,0.09425882,0.17385118,0.110553816,0.038526822,0.3294618,0.0076179085,-0.007328109,0.038642716,0.47615147,0.18005334,0.22337891,-0.39020774,0.121928215,0.0938454
one,-0.16083391,0.008470578,-0.06724173,-0.0079040155,-0.039859843,-0.27139884,0.23324418,0.39366215,-0.31947568,-0.10136732,-0.044003937,-0.43663922,-0.024412867,-0.021084817,0.0401407,-0.17886901,0.23315647,-0.15058812,-0.032830898,-0.4259433,0.21213011,0.118478864,0.3933807,-0.1089132,-0.12945293,-0.027319036,-0.20319416,0.08927328,-0.104024865,-0.10784063,0.3516084,-0.028979465,0.2183673,-0.14506596,-0.002695278,0.31787342,0.1877454,-0.28073454,-0.33655202,-0.31661612,-0.011894871,-0.3304123,0.0089758765,0.096315265,0.23342115,-0.06652527,-0.040117797,-0.11654436,0.012504539,0.10042293,0.031583413,-0.14387664,0.07965813,0.08155096,-0.37563002,0.09105932,0.057798363,0.14922129,-0.26552683,0.121344686,-0.05723588,0.051664006,0.08444358,0.12195867,-0.1575436,0.24817012,0.02190405,0.12767404,-0.2723088,0.23663116,0.09924709,0.117669046,0.15941617,0.16255037,0.29981607,0.10508629,0.11752654,-0.0067040734,-0.31553605,0.10827237,-0.041677397,-0.041619606,-0.17500696,0.05639208,-0.18537349,-0.044871908,0.08420862,0.16564575,0.12795852,0.048750363,0.32295358,-0.00056547194,-0.023095233,0.045730144,0.4414683,0.17837828,0.20944767,-0.4035848,0.12046208,0.10955743
down,-0.15798494,0.02215551,-0.07192557,-0.027517108,-0.04670313,-0.2895189,0.23761794,0.40303183,-0.35536924,-0.1029048,-0.03578898,-0.4527531,-0.019022683,-0.03118041,0.052689593,-0.18396692,0.26566532,-0.17588095,-0.03872702,-0.4439678,0.21986032,0.14654098,0.40593463,-0.11219537,-0.15179549,-0.010804066,-0.22722329,0.090849556,-0.11305715,-0.12847584,0.3494544,-0.034339488,0.21979685,-0.14352758,-0.0066429717,0.33758277,0.1895282,-0.29295072,-0.3747898,-0.32626098,-0.015634175,-0.34225893,0.010541136,0.11744526,0.24439508,-0.06597912,-0.034509335,-0.119888835,0.0016040215,0.10949928,0.015009915,-0.13498062,0.082668565,0.09692617,-0.37018847,0.0831999,0.050793543,0.1442734,-0.27656105,0.11272118,-0.05276517,0.05416879,0.07541539,0.14129509,-0.15608789,0.2636414,0.015904633,0.12449371,-0.27906722,0.25063664,0.0995737,0.12082791,0.16713199,0.16661468,0.31849408,0.120057,0.11285498,-0.0021031848,-0.34047183,0.099021465,-0.044696905,-0.043445613,-0.1978553,0.0662049,-0.19138692,-0.0417195,0.08277167,0.19288982,0.124316424,0.04635608,0.33699197,0.0064843865,-0.018695781,0.04276124,0.46975607,0.18031964,0.21487688,-0.40309185,0.13150936,0.09513217
up,-0.15823045,0.013072983,-0.06468234,-0.029094072,-0.037270878,-0.3014882,0.24303804,0.40413275,-0.32600194,-0.10339106,-0.05154317,-0.4383769,-0.023327928,-0.036232706,0.054022003,-0.18239377,0.24238606,-0.17903997,-0.035588656,-0.44336507,0.21656331,0.14573918,0.39733443,-0.12529476,-0.13708398,-0.014584581,-0.21601589,0.10685502,-0.12924096,-0.12068709,0.3730968,-0.031030107,0.21004744,-0.1588618,-0.009717109,0.33383557,0.1911974,-0.29038817,-0.36223933,-0.3214365,-0.017118663,-0.33527696,-0.002732248,0.099011645,0.24392249,-0.07815795,-0.05148572,-0.116183,0.0064644734,0.112858966,0.02805069,-0.1514517,0.07371852,0.086345844,-0.37479958,0.10433132,0.05572567,0.1559857,-0.2775598,0.12447003,-0.065032534,0.05401047,0.075840384,0.12218377,-0.15579945,0.2686951,0.007926863,0.12732115,-0.26610705,0.24760342,0.09269131,0.1364042,0.17316888,0.1668795,0.3229688,0.092201404,0.1099971,-0.011910059,-0.32904205,0.10851383,-0.049400676,-0.025395714,-0.2088979,0.076126605,-0.18388614,-0.0572653,0.08796691,0.20189652,0.12220028,0.0400803,0.35032505,0.0058011087,-0.00017019094,0.031102892,0.46671894,0.1820196,0.22211717,-0.40848216,0.122872256,0.0950199
about,-0.1590178,0.027939651,-0.06265875,-0.022819333,-0.027077332,-0.29063973,0.2438188,0.40191054,-0.32443765,-0.106639616,-0.04082095,-0.4379599,-0.0041840696,-0.026246933,0.051536914,-0.1756597,0.25217012,-0.16613275,-0.05312514,-0.4515531,0.20352064,0.1402499,0.3751774,-0.12143072,-0.13491186,-0.022960585,-0.21120504,0.093451135,-0.12468663,-0.12168362,0.35628167,-0.025640648,0.20305614,-0.15851876,-0.019491935,0.33387825,0.18383443,-0.2834466,-0.35422593,-0.32815588,-0.013787582,-0.33487162,0.012083257,0.09968912,0.23594317,-0.06931308,-0.041877735,-0.113137305,0.0017918658,0.11573385,0.029432606,-0.1416282,0.06507632,0.07866258,-0.3828256,0.08078449,0.067038245,0.14321959,-0.27638668,0.12474013,-0.049429614,0.053835545,0.08252107,0.12233451,-0.15730697,0.24981639,0.0075857923,0.11649244,-0.27621236,0.24062829,0.10510356,0.119823895,0.16196696,0.17025097,0.3145132,0.09940064,0.11597281,-0.008895869,-0.32718217,0.101873495,-0.026992297,-0.025430823,-0.20149492,0.06089182,-0.18276481,-0.04510209,0.06978716,0.1965191,0.115772136,0.04955454,0.34708142,0.008838609,-0.009193576,0.03921787,0.4498533,0.16866818,0.21828134,-0.403812,0.13827112,0.0901247
there,-0.14715095,0.018772975,-0.08572764,-0.039293867,-0.035322554,-0.30013424,0.25593445,0.407835,-0.31198588,-0.094785355,-0.02427173,-0.43418464,-0.02883227,-0.047231905,0.04049082,-0.17569458,0.26663405,-0.15853718,-0.039502967,-0.4459539,0.2049569,0.11353032,0.40455532,-0.13269444,-0.14494015,-0.02243542,-0.21893585,0.09824175,-0.10068315,-0.12803897,0.37313327,-0.036442455,0.21268557,-0.14103343,0.011630559,0.30872756,0.18915822,-0.29881242,-0.3461405,-0.3275092,-0.0030238705,-0.34426513,0.015041193,0.104008526,0.23955388,-0.06872504,-0.047646314,-0.10148626,-0.004858669,0.13075484,0.028032815,-0.1415528,0.08737404,0.11072698,-0.4045544,0.10666547,0.08243875,0.15055336,-0.25926876,0.13389842,-0.059476495,0.048146907,0.1011494,0.13234368,-0.14546822,0.28415692,0.011869455,0.13581686,-0.28310713,0.22701328,0.086760096,0.12924998,0.16589928,0.17035687,0.31905532,0.09031211,0.11483118,-0.008571216,-0.33603224,0.08878362,-0.053276777,-0.021143628,-0.19323756,0.07715338,-0.19444694,-0.039268363,0.08756181,0.16985801,0.11725651,0.038902726,0.33321664,0.0026176958,-0.011011508,0.047427353,0.464744,0.16439657,0.22799656,-0.41414264,0.10783576,0.093657784
no,-0.15234312,0.0065293685,-0.08142495,-0.029069325,-0.027259657,-0.29511258,0.23811255,0.41409236,-0.31134745,-0.11353497,-0.02904865,-0.4483464,-0.015233715,-0.020628517,0.049842406,-0.15048784,0.25019708,-0.15386641,-0.02342095,-0.4507503,0.18775254,0.114942245,0.3898127,-0.12925042,-0.14364515,-0.03172989,-0.21792933,0.101881154,-0.0934468,-0.12544142,0.34508535,-0.02420076,0.21688922,-0.14401212,0.0015369339,0.31561568,0.18462874,-0.28771037,-0.3564871,-0.30990532,-0.009017643,-0.32437336,-0.0070881383,0.11626603,0.23962209,-0.07267401,-0.041554928,-0.09887837,-0.012383741,0.115252785,0.031274132,-0.13646038,0.075134784,0.099184185,-0.3727435,0.09801112,0.07159499,0.13972239,-0.24342223,0.13449615,-0.06987639,0.04314663,0.09900673,0.14165515,-0.16662961,0.2664156,0.027905144,0.13934183,-0.2504111,0.21665251,0.110298574,0.10238652,0.18272813,0.1836063,0.3094306,0.0812141,0.11926326,-0.027622553,-0.33713332,0.09052189,-0.05238306,-0.020176008,-0.16499878,0.06641754,-0.16646628,-0.030344019,0.094940916,0.18388745,0.13364066,0.048787158,0.3457947,0.016636671,-0.016234294,0.0649691,0.46675578,0.18547763,0.21533005,-0.40447435,0.12022014,0.10163808
gutenberg,-0.06742091,0.0053185457,-0.014184615,0.007847079,-0.017532706,-0.107146025,0.096404806,0.15287699,-0.12382927,-0.04338237,-0.016167808,-0.15962869,0.00048410572,-0.020869605,0.015670247,-0.05920658,0.09483707,-0.07177405,-0.009259601,-0.16741394,0.07087714,0.06288727,0.13896464,-0.046221446,-0.044623304,-0.006022434,-0.087203085,0.036695804,-0.04801476,-0.05131156,0.12815581,-0.0053208387,0.0665282,-0.050969377,-0.006717851,0.13129477,0.06398696,-0.11816039,-0.12720512,-0.13401893,-0.005115655,-0.13096993,-0.0069104536,0.03523977,0.10067217,-0.03020514,-0.011298064,-0.05159248,0.00017623423,0.038885556,0.002118071,-0.055656932,0.013295977,0.027352158,-0.14763694,0.0325447,0.015530181,0.044782944,-0.09384495,0.044169813,-0.015807549,0.024997247,0.03365493,0.044324644,-0.068551056,0.099992745,-0.0003107776,0.054610632,-0.09121414,0.08928454,0.040379263,0.05330482,0.06420915,0.065233074,0.12761676,0.041735664,0.030653305,-0.015506827,-0.12517284,0.039385118,-0.0051292595,-0.02596328,-0.07494535,0.035198405,-0.06984954,-0.026721071,0.028498255,0.06599544,0.040456627,0.009416407,0.12591049,0.007919791,-0.0013134489,0.027229493,0.18371294,0.06984766,0.077283464,-0.14527133,0.040211145,0.031338044
do,-0.12513565,0.01943907,-0.07183633,-0.016872324,-0.018186342,-0.29195014,0.24602345,0.42190072,-0.33176783,-0.08724076,-0.045358766,-0.41465068,0.002331219,-0.02415764,0.07426405,-0.16408467,0.24654546,-0.19239892,-0.044880453,-0.44665322,0.20294748,0.15645203,0.41681337,-0.13254225,-0.15625775,-0.04676213,-0.22433004,0.10536406,-0.12043745,-0.10941581,0.36736232,-0.043586433,0.24721843,-0.14697817,-0.0005796804,0.36356047,0.1784136,-0.2922648,-0.37821218,-0.30556136,-0.016684113,-0.328861,0.017896678,0.12018556,0.2562155,-0.056403115,-0.05100524,-0.09741736,-0.0009093558,0.10596375,0.018799836,-0.15613016,0.038014576,0.065089665,-0.38395754,0.08314106,0.055871274,0.16423096,-0.27320388,0.121838376,-0.0520768,0.032911103,0.077258274,0.1432994,-0.14696258,0.26908752,0.034412377,0.13046709,-0.2911299,0.25016844,0.08651643,0.1228071,0.1656509,0.17847537,0.3321509,0.0812936,0.119407974,-0.029487422,-0.33031136,0.10477839,-0.04792388,-0.04385478,-0.21051146,0.062967874,-0.1759419,-0.07170026,0.10552613,0.19444321,0.13219085,0.054659925,0.3567476,0.0007155632,-0.033070512,0.03988023,0.45458123,0.16212872,0.22366545,-0.39285195,0.13261618,0.073777355
his,-0.1554324,0.018078987,-0.06370756,-0.000789323,-0.028705005,-0.26905555,0.2214574,0.3962829,-0.32723,-0.081745975,-0.047382247,-0.4216729,-0.0050339038,-0.02886889,0.058519587,-0.16482551,0.24209125,-0.18025418,-0.03562338,-0.43267348,0.19155158,0.13434276,0.37128407,-0.11372459,-0.13951273,-0.02878788,-0.21407333,0.08173094,-0.12439836,-0.114419326,0.3528705,-0.030588793,0.19158392,-0.1449938,-0.0017421644,0.31849283,0.17486282,-0.2895876,-0.3357641,-0.32060674,-0.021475988,-0.31647414,-0.0079729,0.11012421,0.24282545,-0.05227854,-0.036903147,-0.10228053,0.00301796,0.10327296,0.024019837,-0.13981737,0.063137904,0.08189788,-0.35855263,0.08659447,0.051144905,0.14586046,-0.26263967,0.11602381,-0.06370899,0.06110919,0.056358874,0.12145682,-0.1396511,0.24702471,0.010367483,0.11472955,-0.25357324,0.22156082,0.08842223,0.11344792,0.16198051,0.15438244,0.29380193,0.09900037,0.107266724,-0.024040228,-0.30375147,0.09699759,-0.040102262,-0.041458968,-0.189774,0.05488427,-0.18081732,-0.04841345,0.06914739,0.18435602,0.12574434,0.0502566,0.32405314,0.004214756,-0.022760483,0.054101296,0.4408901,0.17136404,0.2104651,-0.37965506,0.13667177,0.08562254
then,-0.15629892,0.011492062,-0.05370028,-0.018016068,-0.03114209,-0.28487515,0.24191652,0.4049869,-0.3440393,-0.08581059,-0.05444582,-0.4473671,-0.0067793843,-0.042946957,0.047529634,-0.16700037,0.24621624,-0.18655694,-0.039991025,-0.44997448,0.21076807,0.14032304,0.40155947,-0.13393058,-0.13823807,-0.02614847,-0.21603242,0.08628345,-0.117344074,-0.12362531,0.35382816,-0.017525204,0.21802321,-0.1453975,-0.016809536,0.34275928,0.17459522,-0.30259275,-0.36545262,-0.33043298,-0.008754484,-0.34247342,0.012113113,0.11752888,0.24307916,-0.07014594,-0.0457532,-0.12082488,-0.0073330463,0.11252102,0.023052523,-0.1436306,0.060131114,0.08543767,-0.37991917,0.078751765,0.063140936,0.1613644,-0.27382404,0.12363897,-0.053281687,0.05173249,0.07514531,0.12524939,-0.14987653,0.2664623,0.021459972,0.124594025,-0.27276042,0.23282509,0.08320209,0.13337313,0.15847255,0.16577698,0.32825965,0.094036505,0.11748036,-0.026451988,-0.33700094,0.11589294,-0.040934775,-0.04167059,-0.2022338,0.063162334,-0.18883048,-0.0589771,0.094390854,0.20065103,0.12509768,0.045082856,0.3301768,0.011109959,-0.02139128,0.054795083,0.47285438,0.18194063,0.22260351,-0.39495772,0.14240462,0.09058536
them,-0.142834,0.021066204,-0.046799418,-0.011176816,-0.033172473,-0.27826187,0.21751387,0.38030776,-0.3206901,-0.08645474,-0.044403967,-0.41360256,-0.003997599,-0.020409582,0.06093379,-0.15376565,0.23132923,-0.16493002,-0.045316514,-0.43548894,0.20496474,0.12658247,0.3771074,-0.11570378,-0.1432728,-0.02253764,-0.21319713,0.10044067,-0.118485704,-0.12073436,0.34891,-0.021224836,0.208388,-0.13670005,-0.011794355,0.31402174,0.17762937,-0.2727925,-0.34760407,-0.30865967,-0.0097772,-0.31104922,-0.00030735077,0.10018558,0.23375663,-0.06037868,-0.03711154,-0.09748611,-0.006676017,0.11359871,0.016540837,-0.1409277,0.051347565,0.07015262,-0.3543612,0.08983853,0.044020124,0.1433487,-0.25825608,0.10656614,-0.050351817,0.055572774,0.07304851,0.13193618,-0.13831241,0.24340531,0.020176498,0.12754543,-0.2550201,0.23562159,0.076573506,0.11349328,0.15489203,0.16310982,0.30102843,0.10273403,0.100467004,-0.02669824,-0.3163838,0.09286871,-0.024253238,-0.043197174,-0.19209595,0.07485194,-0.18265843,-0.044854082,0.082917124,0.17311856,0.11817076,0.040281955,0.32623523,-0.0024971953,-0.025043374,0.055909123,0.43326223,0.1740646,0.19840108,-0.37567002,0.12026796,0.08403796
know,-0.1350179,0.0030233595,-0.061001524,-0.0033386801,-0.03419941,-0.27995124,0.2284043,0.41110379,-0.3156106,-0.07978189,-0.054490272,-0.4013405,-0.00984097,-0.030856498,0.065254845,-0.15178289,0.23334214,-0.19658706,-0.0519272,-0.4390537,0.19952334,0.14840676,0.39908114,-0.14368854,-0.14765644,-0.029404221,-0.2165389,0.0817104,-0.09940979,-0.107346326,0.33390754,-0.02044448,0.22039026,-0.14395994,0.0063285795,0.3428085,0.15335454,-0.29471314,-0.36626193,-0.31039745,-0.0075031244,-0.32547492,0.011474714,0.12035011,0.27018094,-0.061581068,-0.04797256,-0.107218295,-0.00126608,0.120428964,0.025952164,-0.1426376,0.02929627,0.07580684,-0.3750508,0.07432995,0.050628666,0.137588,-0.26071247,0.12429422,-0.04806387,0.04033679,0.07523091,0.111876965,-0.13204122,0.2517557,0.033738784,0.13815932,-0.26481292,0.2391453,0.07448451,0.10292603,0.15063047,0.17290303,0.31397542,0.09189783,0.11460113,-0.021584455,-0.30742183,0.094014615,-0.03323286,-0.031783383,-0.19962898,0.051362522,-0.16925897,-0.076952785,0.105596155,0.19542596,0.1126,0.056458216,0.3447999,-0.0045345137,-0.033446547,0.04192002,0.45162606,0.17456488,0.21140805,-0.38068944,0.12083439,0.075049154
project,-0.04655366,-0.0044207005,-0.026283566,-0.0007648557,-0.021330923,-0.09973574,0.08235751,0.14066811,-0.114986524,-0.02127079,-0.005132068,-0.13723171,-0.007824994,0.0007702077,0.009767088,-0.05718724,0.0823307,-0.06566713,-0.022414189,-0.14297436,0.07550325,0.03953552,0.121882394,-0.03343139,-0.04588852,-0.0156025905,-0.0631165,0.027456924,-0.034849886,-0.035207227,0.12565589,-0.00028508506,0.07257483,-0.05541433,0.0001949569,0.10678193,0.059821736,-0.08837488,-0.11029082,-0.116508886,0.0036036712,-0.110843495,0.0004243044,0.0419728,0.074272744,-0.021982437,-0.012793436,-0.028574089,0.0025192802,0.033487495,-0.0007344518,-0.049032025,0.028359292,0.016511424,-0.11445632,0.029801272,0.016209029,0.056820516,-0.07639164,0.047400948,-0.010128293,0.008820757,0.029263161,0.031676494,-0.059071057,0.074909285,0.009543844,0.048535928,-0.09162563,0.07343947,0.026177581,0.033348445,0.04976982,0.05575323,0.105558306,0.031825807,0.030282028,-0.009717955,-0.108336866,0.039065804,-0.0031716062,-0.00628042,-0.06949838,0.016145347,-0.067759834,-0.020366631,0.026301984,0.055567622,0.041408997,0.023136012,0.11150005,0.0013512073,0.004547762,0.022198698,0.14760676,0.04989856,0.069931306,-0.12405466,0.05085708,0.027241623
have,-0.13240074,0.012114276,-0.0469584,-0.013601671,-0.030425176,-0.27449763,0.22101851,0.3982912,-0.3361863,-0.09359874,-0.0398523,-0.41094175,-0.009155017,-0.024748817,0.06327697,-0.15574661,0.23083277,-0.17342454,-0.04985737,-0.44307497,0.19955716,0.13240057,0.39043805,-0.12467669,-0.1440652,-0.0337139,-0.21645918,0.0877036,-0.102102175,-0.103891835,0.33681533,-0.03397446,0.21315402,-0.15161848,0.0045714974,0.33681157,0.1617445,-0.2765404,-0.33833075,-0.32006395,-0.009489094,-0.33284038,0.010084991,0.122116715,0.24782982,-0.07521144,-0.040358014,-0.10946789,-0.0050095487,0.113187954,0.022739226,-0.1349783,0.043506414,0.08098296,-0.37791872,0.08530691,0.061800905,0.1492824,-0.25151148,0.11717088,-0.04951591,0.061617352,0.064235024,0.12970908,-0.16176128,0.25842717,0.022624679,0.13288893,-0.2543984,0.23457602,0.07868508,0.105451815,0.15355504,0.16764665,0.3057249,0.08567037,0.099352635,-0.012691699,-0.30268487,0.10762612,-0.04020485,-0.04220662,-0.19962096,0.070172966,-0.1700018,-0.04926487,0.07260636,0.18716209,0.12791112,0.048651397,0.32067928,-0.008189267,-0.020087289,0.03595609,0.44931254,0.17444317,0.21003936,-0.3935336,0.12294246,0.08559455
by,-0.14801423,0.014660341,-0.06588867,0.000660563,-0.04699669,-0.28214788,0.24772508,0.4053509,-0.3404791,-0.09121053,-0.053708915,-0.4407107,0.0011588437,-0.0430476,0.043059718,-0.17728567,0.25155154,-0.1645206,-0.048500057,-0.45204026,0.21301399,0.14459062,0.39671606,-0.110483535,-0.13646618,-0.016185189,-0.21719326,0.103446536,-0.115825005,-0.11493267,0.35119206,-0.038398527,0.21725018,-0.1540151,-0.0055248616,0.32815343,0.18220696,-0.29658517,-0.34536615,-0.3310734,-0.021255085,-0.33877227,0.0061762,0.118278,0.2440661,-0.058092337,-0.050206203,-0.11654359,-0.008410376,0.10130497,0.032244854,-0.15249594,0.057833884,0.070537806,-0.3679756,0.087219246,0.054374225,0.13707076,-0.26377964,0.12073046,-0.058704983,0.045427274,0.06999336,0.13129124,-0.16847518,0.26062998,0.016221011,0.13536137,-0.2661318,0.23861109,0.085619695,0.11459389,0.16871865,0.15965407,0.30460227,0.10433744,0.11784194,-0.024420468,-0.3301855,0.10633112,-0.038107235,-0.026883857,-0.19228971,0.057894748,-0.19379115,-0.05387294,0.06530911,0.1788392,0.11706029,0.044056352,0.33141184,0.0010264982,-0.009589626,0.04893797,0.47238097,0.16575722,0.22656237,-0.38909274,0.12750329,0.087720096
were,-0.15563938,0.005870043,-0.05329961,-0.0028881019,-0.021255182,-0.28963134,0.23710243,0.4043705,-0.30846715,-0.103950344,-0.043070063,-0.43317044,-0.022937648,-0.025846018,0.06408217,-0.15416586,0.2352436,-0.16038787,-0.042030353,-0.4219348,0.19209643,0.14271635,0.36957216,-0.11908031,-0.13347293,-0.02113579,-0.22078884,0.088846,-0.11047201,-0.12545183,0.35389152,-0.023417505,0.21062882,-0.13227446,-0.011356543,0.32285306,0.18757579,-0.27796012,-0.3349218,-0.31779522,-0.0067954333,-0.3269977,0.005624387,0.09936185,0.23998947,-0.06187083,-0.051370542,-0.09542389,0.004454534,0.106309526,0.017388513,-0.13629572,0.075236924,0.090371765,-0.37596598,0.09718645,0.056900904,0.13378565,-0.2396225,0.12259028,-0.053652145,0.06288311,0.06780497,0.11712485,-0.15443708,0.25063542,0.018880099,0.1241335,-0.2713474,0.22820212,0.09047929,0.11729704,0.16714339,0.15466078,0.31196514,0.0981654,0.117557004,-0.02190846,-0.32032084,0.09568963,-0.031708393,-0.032507002,-0.18066177,0.08022282,-0.18705271,-0.029720917,0.07685799,0.17667139,0.11105116,0.03332345,0.3212773,0.0100264,-0.0047450336,0.059112396,0.44041622,0.18055803,0.20388019,-0.3870944,0.1355446,0.089977995
like,-0.15502349,-0.00091805594,-0.062479824,-0.010509564,-0.050062075,-0.28843144,0.24184103,0.41976598,-0.32297677,-0.08522316,-0.05797172,-0.41912523,-0.0034014783,-0.04419826,0.046442926,-0.1620928,0.24929735,-0.17860042,-0.051765777,-0.45152548,0.21256651,0.13996756,0.39895645,-0.12492676,-0.15349121,-0.030987244,-0.20730695,0.07775233,-0.112142526,-0.11344078,0.3377366,-0.024584403,0.23445985,-0.1513898,0.0070610093,0.34104303,0.16447431,-0.29389557,-0.35812104,-0.31081823,0.0024393855,-0.3235945,0.0087260315,0.11173254,0.2574561,-0.065859824,-0.033348273,-0.108483575,0.00840141,0.10605902,0.026171112,-0.14951569,0.047137316,0.09051653,-0.38790864,0.0923903,0.04670687,0.13915507,-0.2602138,0.12342892,-0.059198692,0.057613138,0.06809523,0.12783955,-0.13914724,0.26259828,0.014514079,0.13689233,-0.27558902,0.24013065,0.09956853,0.13085799,0.16949892,0.163277,0.3356336,0.08998966,0.12027236,-0.026263623,-0.34318373,0.104350455,-0.043490466,-0.044880442,-0.19475368,0.05929013,-0.19656213,-0.072285175,0.08209808,0.19141231,0.13177036,0.048366453,0.34926215,-0.0020136,-0.0083095785,0.05572308,0.46846452,0.16639577,0.22309907,-0.39097852,0.11375002,0.100854285
again,-0.16024832,0.024135841,-0.056532722,-0.013099634,-0.038480375,-0.30795068,0.25072894,0.4263438,-0.34985247,-0.10863311,-0.045035757,-0.45388702,-0.004365682,-0.02936145,0.057717036,-0.18115975,0.24869747,-0.16287988,-0.04064992,-0.4505704,0.21856517,0.13198982,0.40888637,-0.1304458,-0.15684447,-0.010476345,-0.22574416,0.08438481,-0.13060364,-0.11751644,0.3613685,-0.02602588,0.2273796,-0.15131484,-0.009940796,0.3299462,0.18784316,-0.29213783,-0.36254808,-0.33281955,-0.0022485717,-0.33463272,0.014178599,0.11289457,0.24443509,-0.07069678,-0.037738793,-0.12066522,0.014413058,0.10099036,0.0102231195,-0.15660727,0.075201415,0.07703892,-0.37418157,0.07663975,0.06027994,0.15290307,-0.27172488,0.1337418,-0.04782237,0.056177303,0.09093085,0.13918258,-0.15845661,0.27905756,0.014983442,0.11848782,-0.28709027,0.2382637,0.088760406,0.12872277,0.17912658,0.15710032,0.33367562,0.116449445,0.112253726,-0.011720123,-0.338697,0.103977576,-0.035212986,-0.025636982,-0.2022922,0.059057526,-0.20434782,-0.05651338,0.092353284,0.1958143,0.13928717,0.045088086,0.3439668,0.007846342,-0.02611095,0.031770162,0.48531824,0.16538204,0.21990378,-0.41502336,0.14346255,0.091071844
went,-0.13443899,0.021596653,-0.06609499,-0.022606138,-0.037652247,-0.29402262,0.2559414,0.413516,-0.3187586,-0.12159523,-0.04730524,-0.4360451,-0.019113688,-0.041422516,0.05452957,-0.1633812,0.24046709,-0.15577513,-0.03840221,-0.43494523,0.21674958,0.12973073,0.37063375,-0.11109089,-0.15572521,-0.008840258,-0.23274921,0.095975436,-0.12159051,-0.10921583,0.35583776,-0.04118678,0.2057796,-0.1549291,-0.015830116,0.32659125,0.19179276,-0.28236443,-0.35367066,-0.30815393,-0.01989138,-0.32754686,0.0006309647,0.09130533,0.25173518,-0.063069165,-0.05743252,-0.11817273,0.0066031283,0.09522402,0.025121342,-0.14336626,0.08327468,0.07058882,-0.35372686,0.07708077,0.06573928,0.14906982,-0.26145592,0.12457609,-0.06156289,0.0443904,0.08411859,0.115315266,-0.14778775,0.25263187,0.027097668,0.10926253,-0.27929023,0.21326135,0.083363295,0.12499024,0.15358657,0.14730504,0.31097496,0.10875487,0.11647663,0.0032717155,-0.33671856,0.112543516,-0.05284028,-0.023280704,-0.1783074,0.075999774,-0.19983533,-0.039995078,0.07243819,0.18092643,0.11570096,0.034569655,0.33938992,0.012734926,-0.018038968,0.024543963,0.46557462,0.1598384,0.21115617,-0.39218557,0.13017748,0.10840088
would,-0.15333381,0.021551719,-0.05152052,-0.013800483,-0.03608627,-0.28759846,0.23824336,0.39997774,-0.3254463,-0.10298399,-0.03244805,-0.43613446,-0.01629161,-0.029977866,0.059282195,-0.16781372,0.23772843,-0.16643627,-0.042476103,-0.42950273,0.19145389,0.121021524,0.36939785,-0.10846062,-0.13991919,-0.029574797,-0.2066116,0.1014355,-0.103286564,-0.117009565,0.3414414,-0.031806663,0.19818076,-0.13690639,-0.0023846368,0.31985843,0.18477845,-0.29363635,-0.33292773,-0.31601328,-0.010092533,-0.33456787,0.011400003,0.12545972,0.24716407,-0.06705905,-0.05406071,-0.099614516,0.0011191173,0.11745451,0.019246027,-0.14881918,0.06621138,0.066067204,-0.36725304,0.09311576,0.050021157,0.13990135,-0.26059577,0.108617954,-0.06133505,0.052411757,0.068006374,0.121983424,-0.15241179,0.2625201,0.025154246,0.13640371,-0.25998348,0.22219424,0.08504417,0.13008478,0.17061189,0.15157375,0.32044706,0.112543695,0.117049016,-0.028636921,-0.3200535,0.10470834,-0.033356473,-0.04229404,-0.19342358,0.06999901,-0.16604006,-0.053928383,0.07842664,0.17609169,0.122425884,0.049988143,0.32685906,0.0036337806,-0.021104015,0.045860995,0.45597285,0.17542343,0.22386386,-0.39148375,0.13918899,0.08572606
herself,-0.14173381,0.028496904,-0.071428396,-0.0063983677,-0.02453871,-0.2817206,0.2592023,0.4069865,-0.3321439,-0.12596174,-0.0349379,-0.425477,-0.027241737,-0.03384825,0.04699125,-0.18615149,0.24604304,-0.15036564,-0.060314476,-0.43141684,0.18219769,0.11304691,0.3986618,-0.12205749,-0.1437481,-0.038419615,-0.22845373,0.08977225,-0.11411277,-0.10237999,0.33747464,-0.048346903,0.21938427,-0.15578906,-0.023033492,0.31901312,0.20217021,-0.2708812,-0.33397543,-0.29603508,-0.010422618,-0.32083678,0.01824981,0.11279989,0.24081653,-0.055231087,-0.0529019,-0.095275395,0.01092263,0.10702709,0.042756148,-0.15159889,0.074057944,0.058791693,-0.38138857,0.081224255,0.0695102,0.15862784,-0.2708881,0.1335464,-0.05590547,0.050164454,0.092990905,0.13305223,-0.13781372,0.24029914,0.008290704,0.13620573,-0.27149096,0.20774315,0.096349806,0.13005169,0.17585304,0.17060377,0.30750215,0.088946834,0.10080911,-0.007985394,-0.31679368,0.10054321,-0.035583235,-0.044069223,-0.18897343,0.059145078,-0.18245804,-0.046487156,0.09774641,0.17194557,0.13904579,0.06242851,0.34694615,0.028874474,-0.003360368,0.044436194,0.46072385,0.15246652,0.21667205,-0.3641442,0.13265668,0.09089028
when,-0.149322,0.008842677,-0.04427807,-0.009852915,-0.030551221,-0.27401495,0.2520255,0.3935143,-0.3406881,-0.10170587,-0.045704335,-0.44983265,-0.011725144,-0.041830193,0.067089364,-0.16991374,0.24279718,-0.18560044,-0.044614546,-0.46077123,0.20672375,0.14587392,0.37832764,-0.111454085,-0.15036803,-0.032033514,-0.2213418,0.0945931,-0.13064054,-0.12934129,0.35268155,-0.030785378,0.22331978,-0.16794243,-0.008668306,0.33500788,0.18069938,-0.29207835,-0.36036655,-0.31889373,-0.0035790708,-0.34971663,0.0100118825,0.12304678,0.24743651,-0.058952313,-0.053181436,-0.115999274,-0.006883192,0.12258356,0.014044868,-0.14658585,0.06400556,0.07573449,-0.3660522,0.08407212,0.0392643,0.16234554,-0.28219137,0.13895993,-0.059687074,0.06233927,0.08375894,0.124503784,-0.16738592,0.25419733,0.03063101,0.13841876,-0.2640705,0.25057486,0.09628886,0.12656252,0.16941094,0.1551807,0.33226088,0.093917735,0.112696946,-0.012511732,-0.31690982,0.09336648,-0.037751857,-0.025200097,-0.21223901,0.07535327,-0.1943202,-0.040820632,0.07567665,0.2039244,0.13798489,0.033348627,0.34225363,-0.006292648,-3.7580776e-05,0.05816573,0.4520927,0.1780758,0.2177546,-0.409081,0.13384588,0.0804168
can,-0.12854615,-0.0022163817,-0.046867542,0.0027907763,-0.032004766,-0.27432907,0.21753213,0.3991181,-0.31677973,-0.06620649,-0.04215261,-0.41477507,0.000751441,-0.024495317,0.0704775,-0.13870947,0.2237942,-0.1936847,-0.033280294,-0.44910112,0.19863932,0.16192399,0.3709332,-0.12256744,-0.15464081,-0.019239884,-0.20026723,0.092868656,-0.11865065,-0.09390438,0.34888348,-0.028561942,0.2221464,-0.13095245,-0.002224411,0.34782252,0.15639186,-0.289851,-0.35327065,-0.32288226,-0.008004385,-0.33583137,0.0073454157,0.12899469,0.2604588,-0.057353236,-0.05171752,-0.10115521,-0.008943695,0.10466866,0.027433934,-0.12988554,0.035308383,0.065902345,-0.36211336,0.089280374,0.062894166,0.13569924,-0.25870007,0.12420177,-0.052060246,0.0527488,0.055508703,0.12462411,-0.14954183,0.25795752,0.023852445,0.1402919,-0.25435454,0.23843282,0.06331414,0.099710435,0.15237312,0.1697726,0.32430798,0.09483007,0.10060931,-0.017262548,-0.30827084,0.082259804,-0.024550056,-0.040798865,-0.20464595,0.07121988,-0.15694053,-0.05146354,0.08624629,0.20056991,0.12844644,0.03580795,0.3411545,-0.007127076,-0.035112746,0.05944092,0.43265685,0.17822048,0.19932105,-0.372705,0.1246286,0.08642569
could,-0.12551424,0.021660645,-0.06954177,-0.020559661,-0.044664323,-0.28537592,0.26065663,0.40273994,-0.30959955,-0.093489885,-0.0476069,-0.42692357,-0.019123102,-0.052247923,0.05526804,-0.17230502,0.2487173,-0.17594707,-0.05304133,-0.46139312,0.21184613,0.15173948,0.37877074,-0.12489003,-0.15023534,-0.01915351,-0.23487315,0.084815666,-0.10353011,-0.0972846,0.3472803,-0.015042481,0.23182632,-0.14997149,0.0024573144,0.3510049,0.19280514,-0.26756415,-0.36853543,-0.3105608,-0.008862238,-0.3427583,0.0012133892,0.12030398,0.24895544,-0.072000556,-0.040144164,-0.09754928,0.007434399,0.12074693,0.014286267,-0.14502753,0.06763691,0.07829853,-0.38901734,0.09421026,0.055051308,0.14436822,-0.25872466,0.14179471,-0.056444857,0.042169534,0.08892505,0.13024971,-0.13851327,0.25986004,0.028768474,0.1402683,-0.2805697,0.23513207,0.091525644,0.12388905,0.17058285,0.17049855,0.31077954,0.09538011,0.11723975,-0.022188999,-0.327276,0.11047782,-0.033106543,-0.042019032,-0.20200211,0.0543853,-0.18304431,-0.07155212,0.10563638,0.19522434,0.12345533,0.056248892,0.3532673,0.007675045,-0.0050953,0.03635298,0.44624546,0.16395134,0.23795103,-0.38571993,0.13509148,0.08139114
are,-0.1404895,0.010105261,-0.05451991,-0.0066212225,-0.022413539,-0.29787502,0.24313119,0.41539222,-0.3317105,-0.09058665,-0.052421417,-0.4267592,-0.016206572,-0.026749793,0.05034084,-0.15755554,0.2325706,-0.18278304,-0.045000933,-0.4572115,0.20267539,0.1536412,0.39371374,-0.122564,-0.14871617,-0.025629845,-0.2107519,0.089945555,-0.097708,-0.11206128,0.35452798,-0.016419373,0.21741104,-0.13104537,-0.009378739,0.33362168,0.18214989,-0.2811876,-0.34578994,-0.32145128,-0.0009803519,-0.323124,0.0018595577,0.12638803,0.25837326,-0.06330563,-0.040818237,-0.116044424,0.00040127704,0.10911755,0.010636151,-0.12730347,0.058423474,0.07152825,-0.38224193,0.075039126,0.054662347,0.14577511,-0.25766572,0.117802374,-0.0566525,0.06024816,0.05900319,0.1129329,-0.15031657,0.24643491,0.030762136,0.13037255,-0.2757765,0.22476955,0.06926484,0.12211292,0.16043012,0.16885431,0.31203568,0.097035594,0.1100447,-0.025863336,-0.33220306,0.09783791,-0.024599086,-0.046340708,-0.19066328,0.060882565,-0.16775186,-0.060643967,0.09464571,0.18440752,0.1091325,0.04101073,0.32218435,0.0065328036,-0.014761804,0.050765637,0.46719986,0.16628276,0.22352764,-0.39099494,0.12889282,0.095674075
queen,-0.11205097,0.018580403,-0.048572972,-0.01550567,-0.025713379,-0.20703141,0.16735397,0.29199877,-0.24268165,-0.07531277,-0.024189161,-0.31619462,-0.012286214,-0.022150533,0.03671497,-0.12965047,0.17462012,-0.12614383,-0.021360427,-0.32991797,0.1436733,0.09619882,0.2839095,-0.087729916,-0.10746542,-0.02203531,-0.14690462,0.055628397,-0.088516265,-0.08450565,0.25846496,-0.032592308,0.15597737,-0.1050823,-0.0035016523,0.22797419,0.12158103,-0.20734622,-0.24961378,-0.23235542,-0.0044587012,-0.24872541,-0.0022467347,0.07713037,0.17671244,-0.042997964,-0.028248869,-0.086304426,0.0018039421,0.08219104,0.008551034,-0.098163836,0.041271623,0.06677512,-0.26994187,0.06823379,0.037775334,0.09411261,-0.1794083,0.08506032,-0.032471646,0.047052603,0.04115938,0.089989714,-0.10969933,0.18382551,0.023374688,0.08533122,-0.19753847,0.17254227,0.060060266,0.078272924,0.115348205,0.11806006,0.21814801,0.07395506,0.070368744,-0.013312245,-0.2377656,0.085272394,-0.026512409,-0.029235011,-0.1395293,0.055013392,-0.1324363,-0.04036203,0.04349056,0.1346849,0.09446964,0.033921704,0.23254013,-0.004479495,-0.021824734,0.03830857,0.3203889,0.12627615,0.1573057,-0.28938955,0.08641923,0.07645102
any,-0.15213507,0.0030666252,-0.06456169,-0.004207086,-0.03354846,-0.29155502,0.23619871,0.40643814,-0.33313408,-0.098249204,-0.04450855,-0.4422728,-0.0106411325,-0.02895688,0.06054881,-0.16035405,0.24363872,-0.16826144,-0.042619288,-0.43652335,0.20401108,0.1368211,0.3707456,-0.11878083,-0.1383016,-0.017837796,-0.21949504,0.087924406,-0.12098263,-0.108150005,0.3442902,-0.022701684,0.19585893,-0.15055044,-0.012650508,0.3325573,0.16737612,-0.2966517,-0.35918787,-0.32506883,-0.017950505,-0.33314922,0.010909009,0.10810716,0.23837207,-0.06622562,-0.03766712,-0.11484593,-0.007866271,0.11520423,0.027219072,-0.14578773,0.0731207,0.06950525,-0.38437343,0.086781844,0.060496014,0.14265206,-0.25401855,0.12676325,-0.052022804,0.04779583,0.06468863,0.11659913,-0.15092716,0.2686568,0.014273693,0.13187955,-0.2566402,0.22572652,0.08023222,0.109342076,0.15344691,0.155524,0.31657058,0.092668034,0.105272725,-0.013776043,-0.32148308,0.09270704,-0.045081016,-0.036239084,-0.18473499,0.06458043,-0.17612493,-0.04171059,0.07928812,0.18380173,0.12672542,0.034068592,0.33748582,-0.01088453,-0.014603654,0.053606845,0.44783488,0.18171163,0.22344792,-0.4051512,0.12744226,0.08975359
thought,-0.14900453,0.0118243,-0.050601322,0.0037614116,-0.043520596,-0.28454915,0.2304066,0.39369297,-0.31545326,-0.113230094,-0.034501445,-0.43751895,-0.006066612,-0.0319075,0.040832225,-0.16322565,0.23860487,-0.1795663,-0.043763157,-0.42290312,0.18102753,0.11625929,0.37423456,-0.109704025,-0.13706271,-0.009826776,-0.22515123,0.10388893,-0.113322966,-0.116446644,0.32941386,-0.027454391,0.21057957,-0.1363777,-0.0069477367,0.32332847,0.18484862,-0.28753507,-0.3368126,-0.30671182,-0.021806028,-0.3178648,0.011770503,0.1085816,0.23398452,-0.07139974,-0.047049925,-0.09849022,0.0088652065,0.12739363,0.019925678,-0.13230318,0.058331825,0.07183096,-0.3678128,0.078948505,0.058369532,0.13045298,-0.26266336,0.11527245,-0.05306494,0.049518663,0.093917884,0.13516515,-0.15990317,0.24192007,0.031477038,0.13585538,-0.25060058,0.23516072,0.106091365,0.11706716,0.16561717,0.17275126,0.31977352,0.10568879,0.097291656,-0.016505113,-0.30875495,0.10164621,-0.041398518,-0.023956632,-0.17253773,0.05290444,-0.18247671,-0.06732125,0.09804142,0.18144888,0.12698142,0.05033744,0.33464035,0.018912565,0.001377941,0.05475219,0.4470335,0.17036414,0.22096445,-0.3770492,0.11128688,0.090114
off,-0.16200858,0.022300966,-0.059522983,-0.013768909,-0.03427408,-0.27714854,0.22058636,0.39527228,-0.32403117,-0.10323615,-0.03855601,-0.42026708,-0.00626663,-0.038210995,0.04854877,-0.16689378,0.24677576,-0.17471293,-0.033830974,-0.43930253,0.19005115,0.13211115,0.3681075,-0.10974376,-0.14035234,-0.012667337,-0.2192486,0.09351044,-0.111405164,-0.111736216,0.34026214,-0.021478932,0.18954408,-0.15465875,-0.0045118793,0.3251053,0.16967152,-0.29146156,-0.34056732,-0.32103541,-0.011198901,-0.3156196,-0.0019302691,0.095621504,0.24519943,-0.06342111,-0.045826048,-0.110861,-0.0057119066,0.09869353,0.016487317,-0.13512181,0.06775855,0.08709416,-0.35507238,0.08508511,0.039858874,0.142161,-0.26237705,0.12504503,-0.049841896,0.050637268,0.07969811,0.11776874,-0.15228136,0.25023437,0.02936284,0.12826464,-0.25522888,0.2299287,0.084029436,0.12731434,0.14778468,0.1478464,0.29260308,0.11541956,0.10400125,-0.018722905,-0.30537874,0.090919554,-0.042050835,-0.033178125,-0.19155703,0.07466937,-0.17906804,-0.048913103,0.07999504,0.18684708,0.11511065,0.050158624,0.3107717,-0.00035806678,0.0017780312,0.047462795,0.44466123,0.15911785,0.21729481,-0.3801715,0.13322243,0.092534706
how,-0.13124935,0.004474745,-0.068056054,-0.011950063,-0.028303785,-0.28760397,0.2512973,0.39734334,-0.34628513,-0.08429307,-0.03506341,-0.43797347,-0.015103992,-0.04008754,0.05917668,-0.15484734,0.25116664,-0.18212423,-0.04829357,-0.4572053,0.1883177,0.15007876,0.38314646,-0.12808648,-0.15636766,-0.019076336,-0.21058318,0.09472652,-0.111927286,-0.11721751,0.37035087,-0.0334782,0.22595085,-0.1565096,0.010283825,0.3542671,0.19235992,-0.2961541,-0.36242932,-0.33286956,-0.0017586306,-0.34947112,-0.0012754368,0.12798895,0.25569516,-0.059576456,-0.05212658,-0.09651238,0.0050097615,0.10041713,0.026205024,-0.1498449,0.062693454,0.08907141,-0.39491904,0.093546025,0.062211197,0.16163914,-0.27873033,0.124516234,-0.06829966,0.06025729,0.068785965,0.1328029,-0.15102853,0.2675012,0.027132295,0.12828822,-0.269195,0.24192311,0.07644197,0.114341274,0.16435409,0.18022682,0.32311764,0.088142484,0.11207062,-0.008148185,-0.31455773,0.11220373,-0.040883433,-0.04177746,-0.19783893,0.05348826,-0.1886515,-0.060983013,0.087280266,0.20134254,0.135251,0.060585376,0.33667418,0.01968192,-0.024543328,0.047934916,0.45549762,0.16534822,0.2196971,-0.40746772,0.14763086,0.09644384
time,-0.15363656,0.018932687,-0.051188707,-0.014733286,-0.032397673,-0.28852046,0.24316697,0.40042645,-0.33597323,-0.09266295,-0.045576505,-0.44234866,-0.012461118,-0.041821107,0.058633707,-0.17398958,0.24829505,-0.16372538,-0.045516025,-0.4493517,0.21080217,0.1337228,0.37463778,-0.1158252,-0.15302189,-0.019766597,-0.21526666,0.10170242,-0.12380235,-0.115533784,0.3606332,-0.037978046,0.20635453,-0.1508619,-0.020003961,0.32453728,0.19547997,-0.2880987,-0.34631306,-0.3198639,-0.014458109,-0.34338263,0.0012036136,0.11970569,0.24712932,-0.069970354,-0.034198847,-0.10738013,-0.009674536,0.121094316,0.03457515,-0.15249875,0.07955988,0.07623939,-0.37866047,0.09801668,0.0479158,0.13458653,-0.26800424,0.109696105,-0.06662552,0.06562255,0.08690862,0.11732244,-0.1450567,0.26986846,0.029151008,0.138992,-0.27650422,0.228259,0.0960853,0.12893635,0.1683151,0.15044065,0.31643802,0.11547992,0.09789637,-0.0044836667,-0.32221112,0.0973435,-0.043630183,-0.040539447,-0.19488828,0.07237127,-0.18959305,-0.029409291,0.07287262,0.17295979,0.12985069,0.05337917,0.33739096,0.014434979,-0.0019017961,0.041456573,0.46916994,0.16223748,0.21521878,-0.3994111,0.13341528,0.09075365
your,-0.14327507,0.011378985,-0.056140434,-0.011172378,-0.03985722,-0.28138748,0.23047271,0.39867908,-0.32196042,-0.08627083,-0.049738556,-0.40784317,-0.009926283,-0.03581595,0.051840417,-0.14541021,0.2339237,-0.17648062,-0.05062111,-0.43997017,0.19357385,0.14428736,0.36662662,-0.11754221,-0.13972355,-0.016117202,-0.21508275,0.096573696,-0.11576222,-0.10559976,0.33300748,-0.02222817,0.19132896,-0.14280997,-0.0054894523,0.31890306,0.17305602,-0.28420985,-0.33551055,-0.31553212,-0.018209778,-0.3324195,0.009112507,0.11594191,0.25384566,-0.05909773,-0.047000855,-0.09590817,-0.009642219,0.1059919,0.015215097,-0.13731413,0.060901523,0.07241291,-0.37411693,0.084125556,0.054665703,0.14657015,-0.26181212,0.12231591,-0.06104483,0.04455762,0.06050641,0.12244504,-0.14113437,0.25925875,0.031014308,0.13134485,-0.26000175,0.22350569,0.08866768,0.1225568,0.15942217,0.16329668,0.30250207,0.10532416,0.09360286,-0.012214218,-0.30425066,0.093352556,-0.034515943,-0.03301334,-0.17890748,0.06972699,-0.16499422,-0.050740123,0.08289171,0.18893695,0.11727477,0.044967808,0.33007967,0.009304272,-0.021806,0.043865398,0.44277644,0.16751319,0.21121676,-0.3937633,0.13345955,0.10119763
see,-0.14214186,0.018354662,-0.057011824,-0.00044765475,-0.019551506,-0.2834019,0.243098,0.41549712,-0.3419293,-0.082103774,-0.04852477,-0.41634142,-0.019480351,-0.037238393,0.0689416,-0.16911164,0.24458435,-0.17861871,-0.03278835,-0.4573893,0.19590835,0.15768771,0.38721716,-0.1272719,-0.1430733,-0.04078286,-0.22684562,0.086428374,-0.116159916,-0.105982736,0.34738874,-0.034644473,0.23316357,-0.15464552,0.002299387,0.34886134,0.1749165,-0.30234846,-0.35271934,-0.32391542,0.0022427635,-0.3413427,0.012725608,0.12899473,0.2554486,-0.06126587,-0.048236325,-0.10077416,-0.000912288,0.10731503,0.028031424,-0.1315222,0.04599101,0.08285499,-0.37941638,0.08591341,0.05867854,0.16438082,-0.2623844,0.12118343,-0.06410477,0.061007116,0.071986414,0.111257695,-0.15240318,0.2512803,0.027658185,0.13207301,-0.2767648,0.23282681,0.094035245,0.1272461,0.16912825,0.17400154,0.33450526,0.08945717,0.11863106,-0.020128835,-0.33660126,0.09442022,-0.041706905,-0.03001298,-0.19599675,0.051727153,-0.17696011,-0.06201538,0.08827932,0.20394562,0.13510586,0.047822967,0.3427736,0.005858763,-0.03104453,0.048194204,0.46988842,0.1746314,0.22159621,-0.40313506,0.13698769,0.07820052
me,-0.13689984,0.021521743,-0.06331358,-0.011339218,-0.02950917,-0.28772977,0.24717638,0.42719993,-0.3344395,-0.08741663,-0.046821214,-0.43665716,-0.020529373,-0.034293026,0.0673704,-0.15484282,0.24248505,-0.19751763,-0.037619878,-0.45979613,0.19947219,0.15894158,0.41672483,-0.13064425,-0.15748559,-0.025928132,-0.2080416,0.10437927,-0.11882234,-0.10440133,0.3720254,-0.045307368,0.23235978,-0.14752796,-0.0016490198,0.35500523,0.18707229,-0.30747205,-0.3576699,-0.33015382,-0.022820532,-0.32901856,0.00070387754,0.13063326,0.26594138,-0.052259214,-0.0338129,-0.11871189,-0.0009691492,0.097826056,0.018563768,-0.1277111,0.04375378,0.084383346,-0.3977072,0.07851771,0.07193416,0.16008395,-0.2552964,0.13323227,-0.05711147,0.05566894,0.058606196,0.13651136,-0.15296048,0.26540717,0.0147031145,0.13572109,-0.26594985,0.2367769,0.07608674,0.1128944,0.14507535,0.189684,0.31902802,0.09732687,0.09087225,-0.031892113,-0.33600998,0.111256465,-0.026962634,-0.03857317,-0.18307933,0.06487969,-0.16439015,-0.0482315,0.098965764,0.19839483,0.121025726,0.045672093,0.35276175,-0.010319593,-0.022188611,0.035447735,0.47318453,0.1699694,0.22536762,-0.4122668,0.14389957,0.07357629
into,-0.1704376,0.022073472,-0.06267813,-0.015129326,-0.030610189,-0.28559944,0.2514229,0.4269349,-0.3333531,-0.112562925,-0.04546392,-0.4304787,-0.015384249,-0.029436897,0.04745562,-0.18323387,0.26494014,-0.16854389,-0.036084957,-0.4641364,0.21997431,0.13512169,0.39306298,-0.11050388,-0.13139704,-0.028556446,-0.21755634,0.09828986,-0.13685301,-0.12643945,0.35320926,-0.021331867,0.2127881,-0.16309807,-0.01129698,0.34164,0.20392446,-0.3112703,-0.36589548,-0.3245293,-0.012776783,-0.3449958,0.017130794,0.108929425,0.25966153,-0.06518415,-0.046958312,-0.10762099,0.011733918,0.11129272,0.022533216,-0.13858701,0.06694757,0.08877411,-0.37951156,0.08206724,0.056808878,0.14418408,-0.270252,0.109489545,-0.051474456,0.063419685,0.08773477,0.11893328,-0.16781788,0.2764705,0.025137419,0.12650439,-0.28684157,0.24215844,0.080615476,0.12858494,0.16058844,0.1597455,0.32938305,0.11899963,0.106836945,-0.010859539,-0.34046286,0.107405186,-0.040432893,-0.027637158,-0.207123,0.07262258,-0.18187104,-0.032910913,0.08818203,0.17616524,0.12912014,0.05871849,0.3454301,0.0076678335,-0.014410537,0.044047963,0.4747121,0.18602647,0.21804726,-0.41616035,0.14754558,0.08412688
who,-0.14543436,0.013462994,-0.05396691,-0.010619536,-0.033456713,-0.2829998,0.2286574,0.3829737,-0.32091993,-0.08314941,-0.039445747,-0.4032323,-0.006507541,-0.041133642,0.06345544,-0.15977673,0.23088165,-0.15881416,-0.041789323,-0.4229504,0.19551225,0.13422175,0.37715143,-0.104541376,-0.1367294,-0.021044027,-0.19851162,0.07848119,-0.09924583,-0.10411026,0.34291828,-0.024627563,0.1983381,-0.13762146,-0.008730383,0.3299319,0.17718719,-0.27658266,-0.338538,-0.31556767,0.00037988956,-0.3159365,-0.0019256715,0.099068604,0.2347077,-0.06352962,-0.049417313,-0.10425451,0.0048756413,0.09126956,0.019925158,-0.13923872,0.048554543,0.075844206,-0.3757368,0.08171176,0.04386648,0.13026367,-0.24964711,0.12033143,-0.044088278,0.05935398,0.060011968,0.109822094,-0.13784078,0.2514036,0.028553942,0.117464505,-0.25763282,0.21683057,0.07142401,0.11954278,0.14596064,0.16531885,0.2936935,0.107777394,0.09679855,-0.0069152582,-0.314014,0.09295327,-0.024806183,-0.050153326,-0.18945396,0.06519275,-0.18512933,-0.04451664,0.07999653,0.17510247,0.12061257,0.04251158,0.32452482,0.006691767,-0.021284305,0.045253213,0.44303977,0.15331069,0.21771574,-0.38237917,0.12211521,0.08518181
m,-0.12516922,-0.020796744,-0.051388104,-0.010423315,-0.013547373,-0.29380754,0.22934443,0.4211909,-0.32502848,-0.0650785,-0.054141343,-0.42215624,-0.011244089,-0.050119895,0.0653757,-0.14534703,0.24545598,-0.2228913,-0.047131732,-0.47590578,0.21847542,0.19258836,0.4072832,-0.14424092,-0.16745724,-0.020689454,-0.23261522,0.09301179,-0.10156785,-0.09882035,0.34228438,-0.013336838,0.2463824,-0.15480569,0.0015439152,0.4042424,0.1369703,-0.30644926,-0.40038046,-0.3252874,0.009533436,-0.3440001,0.006764956,0.1367316,0.28268328,-0.09015775,-0.045560587,-0.1255024,0.016040415,0.12700509,-0.0031114323,-0.1452559,0.015044417,0.09794292,-0.38803527,0.09976345,0.068668656,0.1627863,-0.2710704,0.1369571,-0.064913094,0.047329158,0.055109967,0.11530878,-0.16486293,0.26382002,0.026568424,0.13166444,-0.25415978,0.27166083,0.06051689,0.110635586,0.14385839,0.20801787,0.34833643,0.09348238,0.12026955,-0.03988673,-0.3539217,0.08769446,-0.015273458,-0.046371087,-0.22772728,0.0660186,-0.18869331,-0.08433821,0.0988912,0.24388118,0.12106748,0.05385557,0.36020947,-0.021458348,-0.039998807,0.061258245,0.4610335,0.18919478,0.23200132,-0.4079831,0.12279936,0.070937395
well,-0.14651942,0.022996845,-0.06260284,-0.011687418,-0.027073447,-0.2979742,0.24920732,0.41711298,-0.31671938,-0.09639674,-0.038413316,-0.41954046,0.0012078757,-0.04298047,0.054410774,-0.16553721,0.2445847,-0.18089107,-0.046692155,-0.4566353,0.20562552,0.14012593,0.3818118,-0.13487266,-0.14154716,-0.01897783,-0.22118746,0.1035187,-0.10873718,-0.115686834,0.3380125,-0.037989896,0.21083805,-0.13981275,0.00048329218,0.34397018,0.17805055,-0.2943737,-0.34870598,-0.32524496,-0.011259042,-0.34279272,0.006546911,0.10658886,0.2580329,-0.072720945,-0.04021793,-0.11529686,-0.007535078,0.11412632,0.010686924,-0.13360316,0.04725173,0.07556542,-0.37145102,0.09270366,0.05767435,0.15923546,-0.2640845,0.13557726,-0.05382176,0.03605022,0.07572009,0.1131432,-0.14900903,0.26642776,0.020455427,0.12956265,-0.26413956,0.23882224,0.0953766,0.110916,0.1698987,0.18074869,0.31045565,0.095995866,0.11031574,-0.027190652,-0.3263193,0.11280251,-0.040683407,-0.048671734,-0.19875188,0.04909594,-0.17812948,-0.05516688,0.092659,0.18612763,0.1371932,0.034649927,0.3322641,-0.007711285,-0.0051725036,0.047013484,0.4528187,0.15966453,0.23166358,-0.3923298,0.12129445,0.09293924
king,-0.006985918,0.009019379,0.006425992,-0.004130291,-0.0030704893,0.0015109503,-0.009736215,0.0040817107,0.0042273975,0.0058862995,-0.008927457,-0.0001275611,-0.0063702166,0.005823178,0.009911272,-0.000764904,-0.007964933,0.0048641777,-0.0002881086,0.0026893818,-0.0063447906,-0.0007081497,-0.0026285255,0.0074075316,-0.00774789,-0.0037480437,-0.0013027084,-0.00281368,0.0059375847,-0.00034502745,-0.0024498915,-0.0087755,-0.009703593,0.0018330633,-0.00080220343,-0.009515912,0.007177,0.007326707,0.0064396393,-0.0030301344,-0.00019077539,0.0077637527,-0.006609682,-0.007012385,-0.008102492,0.0043249656,-0.009384646,0.0017102695,0.008049981,0.0013361096,-0.009520884,0.008130896,0.0056124604,-0.008264849,0.005704863,0.008354855,0.0061200573,-0.0043900623,0.006261617,-0.004923501,-0.007543825,0.0036938072,-0.0052382327,-0.0017362273,-0.0052481317,-0.007318089,-0.0017578256,0.001160686,0.0011827254,0.007519344,0.0035424172,-0.00982317,-0.008783025,-0.0019513178,-0.0024467565,-0.006416893,0.008812456,0.0041727033,-0.007521304,0.0057420623,-0.0015638316,-0.0071679484,2.104044e-06,0.0068900334,-0.0050400533,-0.0037544298,-0.002243569,0.004997339,0.0049361764,-0.007424004,-0.008606702,-0.0005319333,0.0029783344,0.0029847801,0.003230871,-9.986758e-05,-0.0012694752,0.0037854325,-0.00040924072,0.005505704
did,-0.15180303,0.024142921,-0.060484525,-0.008205773,-0.033257645,-0.30639726,0.25742382,0.41728184,-0.32008162,-0.1025305,-0.031351473,-0.42488775,-0.011988839,-0.031473145,0.05254359,-0.15949881,0.24930562,-0.16968937,-0.05099995,-0.45762348,0.19853273,0.1341502,0.38243812,-0.115776114,-0.149902,-0.019460153,-0.21252826,0.08215953,-0.10940028,-0.10678408,0.35691062,-0.023898117,0.2169802,-0.14897195,-0.017143667,0.33129975,0.18375564,-0.2873157,-0.35063004,-0.32343492,-0.00541045,-0.33711642,0.016074283,0.10845477,0.24431397,-0.06746603,-0.04129258,-0.11295064,-0.0027969843,0.12057248,0.0076275086,-0.13517393,0.059023358,0.09097628,-0.3719466,0.09370034,0.049893677,0.14483315,-0.26934353,0.11894216,-0.050969787,0.040948544,0.08000179,0.13264881,-0.14288664,0.25613633,0.025465883,0.11725713,-0.27039406,0.24347508,0.097907655,0.11779859,0.16328533,0.15274835,0.3229035,0.10797438,0.1058046,-0.0048077307,-0.33766136,0.11561977,-0.031224301,-0.033961564,-0.19195305,0.052754074,-0.19696262,-0.058625296,0.07852481,0.19922663,0.12799306,0.047390077,0.34672835,-0.0020834005,-0.0075990795,0.044453125,0.47111323,0.17263496,0.21954545,-0.39804572,0.121156,0.10168206
an,-0.14263076,0.021570027,-0.051949657,-0.022113567,-0.023245053,-0.29115695,0.23361653,0.39966056,-0.31224772,-0.1016182,-0.037565365,-0.43026966,-0.012504609,-0.020728463,0.04030173,-0.1494876,0.2300607,-0.16447629,-0.051165253,-0.44668984,0.19156954,0.14262514,0.3772703,-0.1141641,-0.15059906,-0.00771519,-0.20447043,0.08266176,-0.11514774,-0.10363947,0.34732744,-0.038767748,0.20743734,-0.14833951,-0.003388689,0.33299115,0.17494278,-0.28649378,-0.33878207,-0.31958395,-0.0071650683,-0.3231145,-0.0097535085,0.10782776,0.25214186,-0.064354815,-0.029576084,-0.11002225,0.009562263,0.09577703,0.0242922,-0.14516066,0.063712545,0.089233875,-0.37583965,0.09485852,0.04247546,0.13951743,-0.25199977,0.11233666,-0.048685033,0.043881863,0.06734898,0.13437979,-0.14147083,0.25324884,0.030960906,0.11350267,-0.26402736,0.23307359,0.08472282,0.123554476,0.16360746,0.15354283,0.3023084,0.117175035,0.097677074,-0.030307766,-0.32160944,0.09440185,-0.033649545,-0.040773958,-0.19718178,0.06167225,-0.18356034,-0.052147865,0.08048641,0.18823606,0.11527863,0.054570016,0.3214959,0.012524872,-0.009072764,0.05267372,0.45950398,0.16095114,0.21643732,-0.394524,0.13270758,0.08405269
don,-0.13840862,0.01789294,-0.055515215,0.0019296387,-0.032741558,-0.2696021,0.22624128,0.38551077,-0.30955017,-0.057670616,-0.062333036,-0.41617405,0.00041800147,-0.036132522,0.05943686,-0.13427454,0.2242263,-0.19935764,-0.030817688,-0.4439803,0.19449592,0.16865195,0.39514774,-0.1347383,-0.15776753,-0.029218178,-0.19322063,0.08700581,-0.10522986,-0.10883762,0.35181323,-0.02700692,0.22964765,-0.121821396,-0.009848964,0.35341328,0.151671,-0.3025632,-0.35377085,-0.3165768,0.001238712,-0.3396395,0.013833913,0.10848168,0.25069818,-0.061972238,-0.05080631,-0.10333047,-0.0067762122,0.105557196,0.022859292,-0.13682167,0.044481706,0.071742035,-0.3743708,0.093703665,0.06677887,0.14172573,-0.27006176,0.11983312,-0.044128478,0.05712835,0.052579205,0.1227264,-0.13293435,0.2359309,0.023261782,0.1322243,-0.26351905,0.22770108,0.07622196,0.103082344,0.13909951,0.17732552,0.32959622,0.0969255,0.0979695,-0.034269307,-0.30213675,0.095198184,-0.03613739,-0.054097798,-0.2012061,0.0693527,-0.16496487,-0.0706911,0.09480188,0.19402964,0.12541185,0.037923746,0.33373648,-0.010116067,-0.027179994,0.04583297,0.43675292,0.17324802,0.20407519,-0.3864206,0.14297533,0.08264733
its,-0.16548859,0.02426945,-0.054529358,-0.011884047,-0.02973017,-0.28795856,0.23789991,0.43482307,-0.3557308,-0.09621849,-0.06146788,-0.46685863,-0.023557374,-0.020125313,0.04965514,-0.18203838,0.25171113,-0.16456449,-0.032620467,-0.44990972,0.21609177,0.12854214,0.4137312,-0.11727501,-0.13683803,-0.011128134,-0.21043733,0.096775316,-0.13706397,-0.1319485,0.3795221,-0.029573405,0.2131426,-0.1430941,-0.009812995,0.3316316,0.21057706,-0.3215406,-0.37417716,-0.32347402,-0.022030747,-0.3373951,-0.010949689,0.09509615,0.24202749,-0.06749889,-0.039166495,-0.11163906,0.009624194,0.11335733,0.024959201,-0.16262868,0.09656891,0.08125705,-0.3811085,0.0886314,0.053207587,0.14402439,-0.26253304,0.10646829,-0.05224294,0.064243324,0.080487154,0.11663061,-0.1702228,0.2612354,0.013525852,0.12681653,-0.29570934,0.25470266,0.08900385,0.1198578,0.15788536,0.15043907,0.31375387,0.1163894,0.113320485,-0.0008147962,-0.3313526,0.10886855,-0.027944336,-0.046901356,-0.21226825,0.07775367,-0.20890339,-0.046374887,0.080748975,0.17418844,0.12201941,0.051981453,0.3405837,0.0079007745,-0.014260952,0.05320916,0.48608407,0.1797612,0.2169634,-0.42552882,0.13898331,0.10094936
now,-0.16364884,0.0102496175,-0.06659695,-0.014069706,-0.04033931,-0.29667845,0.25690126,0.42534924,-0.33524734,-0.090460695,-0.04192944,-0.44727886,-0.006105879,-0.038923364,0.064671315,-0.17902692,0.2602859,-0.17994027,-0.03396689,-0.47280928,0.22117034,0.14997695,0.3972716,-0.116961524,-0.15424094,-0.012664236,-0.23585998,0.09525883,-0.110763505,-0.11724641,0.3565266,-0.026920572,0.21025476,-0.14792044,0.00636882,0.35049823,0.19344018,-0.3093966,-0.36475226,-0.33221486,-0.018005755,-0.34689483,-0.0010200224,0.12818484,0.25131044,-0.060423806,-0.043274455,-0.10739273,0.010091054,0.12442251,0.02201758,-0.14575839,0.065667205,0.08491024,-0.40170234,0.09566116,0.06730922,0.16502073,-0.27137044,0.13654211,-0.057332553,0.059174266,0.07073628,0.12566078,-0.16959827,0.27397737,0.014329406,0.14605688,-0.2847969,0.2454983,0.08272482,0.13326293,0.17303161,0.17739797,0.32646197,0.10050193,0.10630937,-0.005986892,-0.34682813,0.11258434,-0.031190597,-0.030310318,-0.19841368,0.06921527,-0.18214627,-0.05187622,0.07315454,0.19479871,0.13108903,0.045498226,0.3559475,0.0024024756,-0.022024479,0.05333555,0.47807252,0.18611027,0.24250937,-0.41140607,0.13603885,0.08603651
turtle,-0.024672799,-0.0009870909,-0.0070421975,-0.0010458799,0.0018030609,-0.048565652,0.055293508,0.07886045,-0.068695344,-0.023909613,-0.016306074,-0.08056301,0.005835704,0.0020187467,0.008533106,-0.031256348,0.039771155,-0.02655987,-0.002317521,-0.08468702,0.049207993,0.017668726,0.064349,-0.012047968,-0.022438955,-0.012789773,-0.033031926,0.013066457,-0.02054353,-0.019204982,0.058978587,0.0009405905,0.03278363,-0.0332149,0.006248957,0.07032155,0.042621,-0.052094735,-0.06585397,-0.071102105,-0.004412967,-0.065691546,0.0033711812,0.029429626,0.05495818,-0.013944718,-0.013702045,-0.013202998,0.008616693,0.014523302,0.008198808,-0.018782297,0.011250719,0.019341769,-0.07962741,0.00797833,0.003952268,0.020489797,-0.059472814,0.02774859,-0.017107712,0.017920261,0.014298694,0.021545371,-0.03879279,0.044532593,0.0070418576,0.03347701,-0.053175837,0.05115724,0.013528497,0.031964626,0.028807543,0.02353098,0.063733466,0.020863963,0.028332122,-0.011971664,-0.059002914,0.024101147,0.0008768207,-0.01037632,-0.03958087,0.0049788193,-0.029720277,-0.015276802,0.019512186,0.044902638,0.029660119,0.015810022,0.057991374,0.009597471,-0.0103938235,0.017194977,0.08360457,0.03349378,0.040871426,-0.07630616,0.03294572,0.020246321
began,-0.16786443,0.021124596,-0.054012477,-0.02325198,-0.031222258,-0.2944609,0.25136933,0.4086871,-0.32796767,-0.09148605,-0.04601799,-0.45689186,-0.014605909,-0.028715098,0.042397175,-0.17964172,0.25016993,-0.1735291,-0.047686167,-0.4578355,0.22167756,0.14964837,0.38134477,-0.1255623,-0.14719675,-0.023853377,-0.22214407,0.08704258,-0.1293062,-0.1275813,0.3639216,-0.021901978,0.20045087,-0.16080898,-0.014899926,0.33727136,0.17989364,-0.29636183,-0.35024127,-0.33579984,-0.017857198,-0.32976717,0.011868002,0.112034336,0.24313074,-0.077342995,-0.04646864,-0.10920618,0.011593287,0.10740333,0.033018235,-0.15188286,0.07756763,0.089376256,-0.38847858,0.10070265,0.051154096,0.15544847,-0.27825615,0.123723656,-0.06114685,0.06397742,0.081977166,0.11854635,-0.16036758,0.25504062,0.010619367,0.12888364,-0.26238894,0.23188388,0.102916144,0.12478903,0.15551616,0.15950495,0.3232365,0.117801644,0.11465186,-0.003210621,-0.33746025,0.101254374,-0.049506616,-0.032756712,-0.20013018,0.057995133,-0.19560914,-0.04641116,0.08912504,0.19185439,0.12869404,0.04470091,0.34834275,0.009302248,-0.020072782,0.032455336,0.4663466,0.17734392,0.2278064,-0.39637443,0.1351845,0.1067181
